svm_type c_svc
kernel_type linear
nr_class 10
total_sv 331
rho 1.43138 3.89164 2.17808 2.05775 1.43435 1.26809 2.31384 1.58075 2.17313 -0.679504 -1.18349 0.0375298 -0.334608 -0.657003 -0.771807 -0.267764 -0.442236 0.865341 1.34185 0.572984 0.728897 0.150744 0.341907 0.560522 1.14894 0.634289 -0.151626 -0.182865 0.516457 -0.389309 -0.283747 -0.588722 -0.713795 -0.633159 -0.841525 -0.440682 -0.514271 0.157369 -0.35221 0.00340301 0.248396 -0.0108538 0.310014 -0.0246411 -0.363718
label 0 8 1 3 2 6 4 5 9 7
probA -4.31061 -3.97508 -4.21185 -4.19776 -4.42623 -4.35588 -3.83995 -4.21807 -4.3816 -4.25231 -4.58159 -4.4906 -4.3756 -4.47442 -4.45858 -4.30159 -4.49236 -4.14509 -3.98757 -4.48531 -4.39209 -4.10071 -4.35981 -3.66058 -4.04466 -4.64371 -4.41632 -4.55008 -4.57307 -4.25505 -4.50559 -4.48457 -4.3844 -4.23764 -4.35855 -4.48464 -4.31496 -4.31088 -4.6296 -4.48792 -4.53136 -4.44974 -4.54076 -4.55896 -4.52412
probB -0.244342 -0.383684 0.0239217 -0.215847 -0.189107 -0.0657697 -0.0969009 -0.293376 0.181677 0.133472 -0.0268181 0.329434 0.0499482 0.0923724 0.115138 0.0247594 0.0288976 0.238655 0.231629 -0.108036 0.0483691 0.111334 -0.11913 -0.399503 0.035958 -0.128846 -0.238462 0.207029 -0.019485 -0.116248 -0.383353 0.0490147 -0.226032 -0.206199 0.0219873 0.118114 0.091491 -0.0150909 0.0492713 0.147457 -0.131794 -0.0484453 -0.193301 -0.0722734 0.128426
nr_sv 20 41 27 45 33 41 31 34 36 23
SV
0 7.671942046738931e-08 3.375776166129107e-08 1.062542963244577e-08 0 0 0 0 5.96932357383049e-09 1:255 2:255 3:255 4:255 5:255 6:255 7:255 8:255 9:255 10:255 11:255 12:255 13:255 14:255 15:255 16:255 17:255 18:255 19:255 20:255 21:255 22:255 23:255 24:255 25:255 26:255 27:255 28:255 29:255 30:255 31:255 32:255 33:255 34:255 35:255 36:255 37:255 38:255 39:255 40:255 41:255 42:255 43:255 44:255 45:255 46:255 47:255 48:255 49:255 50:255 51:255 52:255 53:255 54:255 55:255 56:255 57:255 58:255 59:255 60:255 61:255 62:255 63:255 64:255 65:255 66:255 67:255 68:255 69:255 70:255 71:255 72:255 73:255 74:255 75:255 76:255 77:255 78:255 79:255 80:255 81:255 82:255 83:255 84:255 85:255 86:255 87:255 88:255 89:255 90:255 91:255 92:255 93:255 94:255 95:255 96:255 97:255 98:255 99:255 100:55 102:29 103:255 104:255 105:255 106:255 107:255 108:255 109:255 110:232 111:21 112:21 113:138 114:107 117:8 118:255 119:255 120:255 121:255 122:255 123:255 124:255 125:255 126:255 127:255 128:255 129:255 130:108 131:64 132:255 133:255 134:255 135:255 136:64 138:159 139:191 140:255 141:255 142:255 143:255 144:255 145:108 148:255 149:255 150:255 151:255 152:255 153:255 154:255 155:255 156:255 157:255 158:255 159:255 160:255 161:255 162:255 163:255 164:255 165:255 166:255 167:32 170:25 171:255 172:255 173:255 174:255 175:255 176:121 177:111 178:255 179:255 180:255 181:255 182:255 183:255 184:255 185:255 186:255 187:255 188:255 189:255 190:255 191:255 192:255 193:255 194:255 195:255 196:255 197:255 198:25 200:255 201:255 202:255 203:255 204:255 205:255 206:255 207:255 208:255 209:255 210:255 211:255 212:255 213:255 214:255 215:255 216:255 217:185 218:255 219:255 220:255 221:255 222:255 223:255 224:255 225:255 226:255 227:255 228:255 229:255 230:255 231:255 232:255 233:255 234:255 235:255 236:255 237:255 238:255 239:255 240:255 241:255 242:255 243:255 244:255 245:255 246:255 247:255 248:255 249:255 250:255 251:255 252:255 253:255 254:255 255:255 256:255 257:255 258:255 259:255 260:255 261:255 262:255 263:255 264:255 265:255 266:255 267:255 268:255 269:255 270:255 271:255 272:255 273:255 274:255 275:255 276:255 277:255 278:255 279:255 280:255 281:255 282:255 283:255 284:255 285:255 286:255 287:255 288:255 289:255 290:255 291:255 292:255 293:255 294:255 295:255 296:255 297:255 298:255 299:255 300:255 301:255 302:255 303:255 304:255 305:255 306:255 307:255 308:255 309:255 310:255 311:255 312:255 313:255 314:255 315:255 316:255 317:255 318:255 319:255 320:255 321:255 322:255 323:255 324:255 325:255 326:255 327:255 328:255 329:255 330:255 331:255 332:255 333:255 334:255 335:255 336:255 337:255 338:255 339:255 340:255 341:255 342:255 343:255 344:255 345:255 346:255 347:255 348:255 349:255 350:255 351:255 352:255 353:255 354:255 355:255 356:255 357:255 358:255 359:255 360:255 361:255 362:255 363:255 364:255 365:255 366:255 367:255 368:255 369:255 370:255 371:255 372:255 373:255 374:255 375:255 376:255 377:255 378:255 379:255 380:255 381:255 382:255 383:255 384:255 385:255 386:255 387:255 388:255 389:255 390:255 391:255 392:255 393:255 394:255 395:255 396:255 397:255 398:255 399:255 400:255 401:255 402:255 403:255 404:255 405:255 406:255 407:255 408:255 409:255 410:255 411:255 412:255 413:255 414:255 415:255 416:255 417:255 418:255 419:255 420:255 421:255 422:255 423:255 424:255 425:255 426:255 427:255 428:255 429:255 430:255 431:255 432:255 433:255 434:255 435:255 436:255 437:255 438:255 439:255 440:255 441:255 442:255 443:255 444:255 445:255 446:255 447:255 448:255 449:255 450:255 451:255 452:255 453:255 454:255 455:255 456:255 457:255 458:255 459:255 460:255 461:255 462:255 463:255 464:255 465:255 466:255 467:255 468:255 469:255 470:255 471:255 472:255 473:255 474:255 475:255 476:255 477:255 478:255 479:255 480:255 481:255 482:255 483:255 484:255 485:255 486:255 487:255 488:255 489:255 490:255 491:255 492:255 493:255 494:255 495:255 496:255 497:255 498:255 499:255 500:255 501:255 502:255 503:255 504:255 505:255 506:255 507:255 508:255 509:255 510:255 511:255 512:255 513:255 514:255 515:255 516:255 517:255 518:255 519:255 520:255 521:255 522:255 523:255 524:255 525:255 526:255 527:255 528:255 529:255 530:255 531:255 532:255 533:255 534:255 535:255 536:255 537:255 538:255 539:255 540:255 541:255 542:255 543:255 544:255 545:255 546:255 547:255 548:255 549:255 550:255 551:255 552:255 553:255 554:255 555:255 556:255 557:255 558:255 559:255 560:255 561:255 562:255 563:255 564:255 565:255 566:255 567:255 568:255 569:255 570:255 571:255 572:255 573:255 574:255 575:255 576:255 577:255 578:255 579:255 580:255 581:255 582:255 583:255 584:255 585:255 586:255 587:255 588:255 589:255 590:255 591:255 592:255 593:255 594:255 595:255 596:255 597:255 598:255 599:255 600:255 601:255 602:255 603:255 604:255 605:255 606:255 607:255 608:255 609:255 610:255 611:255 612:255 613:255 614:255 615:255 616:255 617:255 618:255 619:255 620:255 621:255 622:255 623:255 624:255 625:255 626:255 627:255 628:255 629:255 630:255 631:255 632:255 633:255 634:255 635:255 636:255 637:255 638:255 639:255 640:255 641:255 642:255 643:255 644:255 645:255 646:255 647:255 648:255 649:255 650:253 651:255 652:255 653:255 654:255 655:255 656:255 657:255 658:255 659:255 660:255 661:255 662:255 663:255 664:255 665:255 666:206 667:255 668:255 669:255 670:255 671:255 672:255 673:255 674:255 675:255 676:255 677:255 678:255 679:255 681:45 682:255 683:255 684:255 685:255 686:255 687:255 688:255 689:255 690:255 691:255 692:255 693:255 694:255 695:134 697:255 698:255 699:255 700:255 701:255 702:255 703:255 704:255 705:255 706:255 707:255 708:255 709:8 711:141 712:255 713:255 714:255 715:255 716:255 717:255 718:255 719:255 720:255 721:255 722:255 723:255 724:255 727:255 728:255 729:255 730:255 731:255 732:255 733:255 734:255 735:255 736:255 737:255 738:255 739:152 740:159 741:255 742:255 743:255 744:255 745:255 746:255 747:255 748:255 749:255 750:255 751:255 752:255 753:255 754:255 755:191 756:255 757:255 758:255 759:255 760:255 761:255 762:255 763:255 764:255 765:255 766:255 767:255 768:255 769:255 770:255 771:255 772:255 773:255 774:255 775:255 776:255 777:255 778:255 779:255 780:255 781:255 782:255 783:255 784:255 785:255 786:255 787:255 788:255 789:255 790:255 791:255 792:255 793:255 794:255 795:255 796:255 797:255 798:255 799:255 800:255 801:255 802:255 803:255 804:255 805:255 806:255 807:255 808:255 809:255 810:255 811:255 812:255 813:255 814:255 815:255 816:255 817:255 818:255 819:255 820:255 821:255 822:255 823:255 824:255 825:255 826:255 827:255 828:255 829:255 830:255 831:255 832:255 833:255 834:255 835:255 836:255 837:255 838:255 839:255 840:255 841:255 842:255 843:255 844:255 845:255 846:255 847:255 848:255 849:255 850:255 851:255 852:255 853:255 854:255 855:255 856:255 857:255 858:255 859:255 860:255 861:255 862:255 863:255 864:255 865:255 866:255 867:255 868:255 869:255 870:255 871:255 872:255 873:255 874:255 875:255 876:255 877:255 878:255 879:255 880:255 881:255 882:255 883:255 884:255 885:255 886:255 887:255 888:255 889:255 890:255 891:255 892:255 893:255 894:255 895:255 896:255 897:255 898:255 899:255 900:255 
2.654860659027052e-09 3.584944904157053e-08 5.144438433402861e-08 3.545915534981834e-09 0 0 2.106000868171432e-08 1.342748411121963e-08 2.175321235950471e-08 1:255 2:255 3:255 4:255 5:255 6:255 7:255 8:255 9:255 10:255 11:255 12:255 13:255 14:255 15:255 16:255 17:255 18:255 19:255 20:255 21:255 22:255 23:255 24:255 25:255 26:255 27:255 28:255 29:255 30:255 31:255 32:255 33:255 34:255 35:255 36:255 37:255 38:255 39:255 40:255 41:255 42:255 43:255 44:255 45:255 46:255 47:255 48:255 49:255 50:255 51:255 52:255 53:255 54:255 55:255 56:255 57:255 58:255 59:255 60:255 61:255 62:255 63:255 64:255 65:255 66:255 67:255 68:255 69:255 70:255 71:255 72:255 73:255 74:255 75:255 76:255 77:255 78:255 79:255 80:255 81:255 82:255 83:255 84:255 85:255 86:255 87:255 88:255 89:255 90:255 91:255 92:255 93:255 94:255 95:255 96:255 97:255 98:255 99:255 100:255 101:255 102:255 103:255 104:255 105:255 106:255 107:255 108:255 109:255 110:255 111:255 112:255 113:255 114:255 115:255 116:255 117:255 118:255 119:255 120:255 121:255 122:255 123:255 124:255 125:255 126:255 127:255 128:255 129:255 130:255 131:255 132:255 133:255 134:255 135:255 136:255 137:255 138:255 139:255 140:255 141:255 142:255 143:255 144:255 145:255 146:255 147:255 148:255 149:255 150:255 151:255 152:255 153:255 154:255 155:255 156:255 157:255 158:255 159:255 160:255 161:255 162:255 163:255 164:255 165:255 166:255 167:255 168:255 169:255 170:255 171:255 172:255 173:255 174:255 175:255 176:255 177:255 178:255 179:255 180:255 181:255 182:255 183:255 184:255 185:255 186:255 187:255 188:255 189:255 190:255 191:255 192:255 193:255 194:255 195:255 196:255 197:255 198:255 199:255 200:255 201:255 202:255 203:255 204:255 205:255 206:255 207:255 208:255 209:255 210:255 211:255 212:255 213:255 214:255 215:255 216:255 217:255 218:255 219:255 220:255 221:255 222:255 223:255 224:255 225:255 226:255 227:255 228:255 229:255 230:255 231:255 232:255 233:255 234:255 235:255 236:255 237:255 238:255 239:255 240:255 241:255 242:255 243:255 244:255 245:255 246:255 247:255 248:255 249:255 250:255 251:255 252:255 253:255 254:255 255:255 256:255 257:255 258:255 259:255 260:255 261:255 262:255 263:255 264:255 265:255 266:255 267:255 268:255 269:255 270:255 271:255 272:255 273:255 274:255 275:255 276:255 277:255 278:255 279:255 280:255 281:255 282:255 283:255 284:255 285:255 286:255 287:255 288:255 289:255 290:255 291:255 292:255 293:255 294:255 295:255 296:255 297:255 298:255 299:255 300:255 301:255 302:255 303:255 304:255 305:255 306:255 307:255 308:255 309:255 310:255 311:255 312:255 313:255 314:255 315:255 316:255 317:255 318:255 319:255 320:255 321:255 322:255 323:255 324:255 325:255 326:255 327:255 328:255 329:255 330:255 331:255 332:255 333:255 334:255 335:255 336:255 337:255 338:255 339:255 340:255 341:255 342:255 343:255 344:248 345:255 346:255 347:255 348:255 349:255 350:255 351:255 352:255 353:255 354:255 355:255 356:255 357:255 358:255 359:255 360:255 361:255 362:255 363:255 364:255 365:255 366:255 367:255 368:255 369:255 370:255 371:255 372:255 373:255 374:38 375:253 376:255 377:255 378:255 379:255 380:255 381:255 382:255 383:255 384:255 385:255 386:255 387:255 388:255 389:255 390:255 391:255 392:255 393:255 394:255 395:255 396:255 397:255 398:255 399:255 400:255 401:255 402:255 403:255 404:255 405:242 406:255 407:255 408:255 409:255 410:255 411:255 412:255 413:255 414:255 415:255 416:255 417:255 418:255 419:255 420:255 421:255 422:255 423:255 424:255 425:255 426:255 427:255 428:255 429:255 430:255 431:255 432:255 433:255 434:255 435:145 436:242 437:145 438:108 439:51 440:255 441:255 442:255 443:255 444:255 445:255 446:255 447:255 448:255 449:255 450:255 451:255 452:255 453:255 454:255 455:255 456:255 457:255 458:255 459:255 460:255 461:255 462:255 463:255 464:255 466:105 467:22 470:255 471:255 472:255 473:255 474:255 475:255 476:255 477:255 478:255 479:255 480:255 481:255 482:255 483:255 484:255 485:255 486:255 487:255 488:255 489:255 490:255 491:255 492:255 493:255 494:255 497:11 499:89 500:157 501:255 502:255 503:255 504:255 505:255 506:255 507:255 508:255 509:255 510:255 511:255 512:255 513:255 514:255 515:255 516:255 517:255 518:255 519:255 520:255 521:255 522:255 523:255 524:255 529:15 531:255 532:117 533:95 534:42 535:255 536:255 537:255 538:255 539:255 540:255 541:255 542:255 543:255 544:255 545:255 546:255 547:255 548:255 549:255 550:255 551:255 552:255 553:255 554:255 555:247 561:8 562:86 563:64 565:8 566:255 567:255 568:255 569:255 570:255 571:255 572:255 573:255 574:255 575:255 576:255 577:255 578:255 579:255 580:255 581:255 582:255 583:255 584:255 585:255 586:255 587:26 589:26 590:129 591:255 592:255 593:6 596:229 597:255 598:255 599:255 600:255 601:255 602:255 603:255 604:255 605:255 606:255 607:255 608:255 609:255 610:255 611:255 612:255 613:255 614:255 615:255 616:255 617:255 618:255 619:255 620:255 621:255 622:255 623:255 624:60 627:255 628:255 629:255 630:255 631:255 632:255 633:255 634:255 635:255 636:255 637:255 638:255 639:255 640:255 641:255 642:255 643:255 644:255 645:255 646:255 647:255 648:255 649:255 650:255 651:255 652:255 653:255 654:255 655:255 656:94 657:255 658:255 659:255 660:255 661:255 662:255 663:255 664:255 665:255 666:255 667:255 668:255 669:255 670:255 671:255 672:255 673:255 674:255 675:255 676:255 677:255 678:255 679:255 680:255 681:255 682:255 683:255 684:255 685:255 686:255 687:255 688:255 689:255 690:255 691:255 692:255 693:255 694:255 695:255 696:255 697:255 698:255 699:255 700:255 701:255 702:255 703:255 704:255 705:255 706:255 707:255 708:255 709:255 710:255 711:255 712:255 713:255 714:255 715:255 716:255 717:255 718:255 719:255 720:255 721:255 722:255 723:255 724:255 725:255 726:255 727:255 728:255 729:255 730:255 731:255 732:255 733:255 734:255 735:255 736:255 737:255 738:255 739:255 740:255 741:255 742:255 743:255 744:255 745:255 746:255 747:255 748:255 749:255 750:255 751:255 752:255 753:255 754:255 755:255 756:255 757:255 758:255 759:255 760:255 761:255 762:255 763:255 764:255 765:255 766:255 767:255 768:255 769:255 770:255 771:255 772:255 773:255 774:255 775:255 776:255 777:255 778:255 779:255 780:255 781:255 782:255 783:255 784:255 785:255 786:255 787:255 788:255 789:255 790:255 791:255 792:255 793:255 794:255 795:255 796:255 797:255 798:255 799:255 800:255 801:255 802:255 803:255 804:255 805:255 806:255 807:255 808:255 809:255 810:255 811:255 812:255 813:255 814:255 815:255 816:255 817:255 818:255 819:255 820:255 821:255 822:255 823:255 824:255 825:255 826:255 827:255 828:255 829:255 830:255 831:255 832:255 833:255 834:255 835:255 836:255 837:255 838:255 839:255 840:255 841:255 842:255 843:255 844:255 845:255 846:255 847:255 848:255 849:255 850:255 851:255 852:255 853:255 854:255 855:255 856:255 857:255 858:255 859:255 860:255 861:255 862:255 863:255 864:255 865:255 866:255 867:255 868:255 869:255 870:255 871:255 872:255 873:255 874:255 875:255 876:255 877:255 878:255 879:255 880:255 881:255 882:255 883:255 884:255 885:255 886:255 887:255 888:255 889:255 890:255 891:255 892:255 893:255 894:255 895:255 896:255 897:255 898:255 899:255 900:255 
0 0 0 2.075988422725531e-09 6.552008275877663e-09 0 0 0 1.525133729044325e-07 1:255 2:255 3:255 4:255 5:255 6:255 7:255 8:255 9:255 10:255 11:255 12:255 13:255 14:255 15:255 16:255 17:255 18:255 19:255 20:255 21:255 22:255 23:255 24:255 25:255 26:255 27:255 28:255 29:255 30:255 31:255 32:255 33:255 34:255 35:255 36:255 37:255 38:255 39:255 40:255 41:255 42:255 43:255 44:255 45:255 46:255 47:255 48:255 49:255 50:255 51:255 52:255 53:255 54:255 55:255 56:255 57:255 58:255 59:255 60:255 61:255 62:255 63:255 64:255 65:255 66:255 67:255 68:255 69:255 70:255 71:255 72:255 73:255 74:255 75:255 76:255 77:255 78:255 79:255 80:255 81:255 82:255 83:255 84:255 85:255 86:255 87:255 88:255 89:255 90:255 91:255 92:255 93:255 94:255 95:255 96:255 97:255 98:255 99:255 100:255 101:255 102:255 103:255 104:255 105:255 106:255 107:255 108:255 109:255 110:255 111:8 112:8 113:132 114:255 115:255 116:255 117:255 118:255 119:255 120:255 121:255 122:255 123:255 124:255 125:255 126:255 127:255 128:255 129:255 130:255 131:255 132:255 133:255 134:255 135:255 136:255 137:255 138:255 139:255 144:255 145:255 146:255 147:255 148:255 149:255 150:255 151:255 152:255 153:255 154:255 155:255 156:255 157:255 158:255 159:255 160:255 161:255 162:255 163:255 164:255 165:255 166:255 167:255 168:255 169:255 173:30 174:255 175:255 176:255 177:255 178:255 179:255 180:255 181:255 182:255 183:255 184:255 185:255 186:255 187:255 188:255 189:255 190:255 191:255 192:255 193:255 194:255 195:255 196:255 197:255 198:255 199:255 200:239 203:174 204:255 205:255 206:255 207:255 208:255 209:255 210:255 211:255 212:255 213:255 214:255 215:255 216:255 217:255 218:255 219:255 220:255 221:255 222:255 223:255 224:255 225:255 226:255 227:255 228:255 229:255 230:255 231:255 232:255 233:255 234:255 235:255 236:255 237:255 238:255 239:255 240:255 241:255 242:255 243:255 244:255 245:255 246:255 247:255 248:255 249:255 250:255 251:255 252:255 253:255 254:255 255:255 256:255 257:255 258:255 259:255 260:255 261:255 262:255 263:255 264:255 265:255 266:255 267:255 268:255 269:255 270:255 271:255 272:255 273:255 274:255 275:255 276:255 277:255 278:255 279:255 280:255 281:255 282:255 283:255 284:255 285:255 286:255 287:255 288:92 289:60 290:255 291:255 292:255 293:255 294:255 295:255 296:255 297:255 298:255 299:255 300:255 301:255 302:255 303:255 304:255 305:255 306:255 307:255 308:255 309:255 310:255 311:255 312:255 313:255 314:255 315:255 316:255 317:94 319:222 320:255 321:255 322:255 323:255 324:255 325:255 326:255 327:255 328:255 329:255 330:255 331:255 332:255 333:255 334:255 335:255 336:255 337:255 338:255 339:255 340:255 341:255 342:255 343:255 344:255 345:255 346:255 347:76 348:8 349:255 350:255 351:255 352:255 353:255 354:255 355:255 356:255 357:255 358:255 359:255 360:255 361:255 362:255 363:255 364:255 365:255 366:255 367:255 368:255 369:255 370:255 371:255 372:255 373:255 374:255 375:255 376:255 377:255 378:255 379:255 380:255 381:255 382:255 383:255 384:255 385:255 386:255 387:255 388:255 389:255 390:255 391:255 392:255 393:255 394:255 395:255 396:255 397:255 398:255 399:255 400:255 401:255 402:255 403:255 404:255 405:255 406:255 407:255 408:255 409:255 410:255 411:255 412:255 413:255 414:255 415:255 416:255 417:255 418:255 419:255 420:255 421:255 422:255 423:255 424:255 425:255 426:255 427:255 428:255 429:255 430:255 431:255 432:255 433:255 434:255 435:255 436:255 437:255 438:255 439:255 440:255 441:255 442:255 443:255 444:255 445:255 446:255 447:255 448:255 449:255 450:255 451:255 452:255 453:255 454:255 455:255 456:255 457:255 458:255 459:255 460:255 461:255 462:255 463:255 464:255 465:255 466:255 467:255 468:255 469:255 470:255 471:255 472:255 473:255 474:255 475:255 476:255 477:255 478:255 479:255 480:255 481:255 482:255 483:255 484:255 485:255 486:255 487:255 488:255 489:255 490:255 491:255 492:249 493:64 494:201 495:255 496:255 497:255 498:255 499:255 500:255 501:255 502:255 503:255 504:255 505:255 506:255 507:255 508:255 509:255 510:255 511:255 512:255 513:255 514:255 515:255 516:255 517:255 518:255 519:255 520:255 521:255 523:220 524:255 525:255 526:255 527:255 528:255 529:255 530:255 531:255 532:255 533:255 534:255 535:255 536:255 537:255 538:255 539:255 540:255 541:255 542:255 543:255 544:255 545:255 546:255 547:255 548:255 549:255 550:255 551:255 552:247 553:255 554:255 555:255 556:255 557:255 558:255 559:255 560:255 561:255 562:255 563:255 564:255 565:255 566:255 567:255 568:255 569:255 570:255 571:255 572:255 573:255 574:255 575:255 576:255 577:255 578:255 579:255 580:255 581:255 582:255 583:255 584:255 585:255 586:255 587:255 588:255 589:255 590:255 591:255 592:255 593:255 594:255 595:255 596:255 597:255 598:255 599:255 600:255 601:255 602:255 603:255 604:255 605:255 606:255 607:255 608:255 609:255 610:255 611:255 612:255 613:255 614:255 615:255 616:255 617:255 618:255 619:255 620:255 621:255 622:255 623:255 624:255 625:255 626:255 627:255 628:255 629:255 630:255 631:255 632:255 633:255 634:255 635:255 636:255 637:255 638:255 639:255 640:255 641:255 642:255 643:255 644:255 645:255 646:255 647:255 648:255 649:255 650:255 651:255 652:255 653:255 654:255 655:255 656:255 657:255 658:255 659:255 660:255 661:255 662:255 663:255 664:255 665:255 666:255 667:255 668:255 669:255 670:255 671:255 672:255 673:255 674:255 675:255 676:255 677:255 678:255 679:255 680:255 681:255 682:255 683:255 684:255 685:255 686:255 687:255 688:255 689:255 690:255 691:255 692:255 693:255 694:255 695:255 696:255 697:255 698:255 699:255 700:255 701:255 702:255 703:255 704:255 705:255 706:255 707:255 708:255 709:255 710:255 711:255 712:255 713:255 714:255 715:255 716:255 717:255 718:255 719:255 720:255 721:255 722:255 723:255 724:255 725:255 726:255 727:255 728:255 729:255 730:255 731:255 732:255 733:255 734:255 735:255 736:255 737:255 738:255 739:255 740:255 741:255 742:255 743:255 744:255 745:255 746:255 747:255 748:255 749:255 750:255 751:255 752:255 753:255 754:255 755:255 756:255 757:255 758:255 759:255 760:255 761:255 762:255 763:255 764:255 765:255 766:255 767:255 768:255 769:255 770:255 771:255 772:255 773:255 774:255 775:255 776:255 777:255 778:255 779:255 780:255 781:255 782:255 783:255 784:255 785:255 786:255 787:255 788:255 789:255 790:255 791:255 792:255 793:255 794:255 795:255 796:255 797:255 798:255 799:255 800:255 801:255 802:255 803:255 804:255 805:255 806:255 807:255 808:255 809:255 810:255 811:255 812:255 813:255 814:255 815:255 816:255 817:255 818:255 819:255 820:255 821:255 822:255 823:255 824:255 825:255 826:255 827:255 828:255 829:255 830:255 831:255 832:255 833:255 834:255 835:255 836:255 837:255 838:255 839:255 840:255 841:255 842:255 843:255 844:255 845:255 846:255 847:255 848:255 849:255 850:255 851:255 852:255 853:255 854:255 855:255 856:255 857:255 858:255 859:255 860:255 861:255 862:255 863:255 864:255 865:255 866:255 867:255 868:255 869:255 870:255 871:255 872:255 873:255 874:255 875:255 876:255 877:255 878:255 879:255 880:255 881:255 882:255 883:255 884:255 885:255 886:255 887:255 888:255 889:255 890:255 891:255 892:255 893:255 894:255 895:255 896:255 897:255 898:255 899:255 900:255 
0 0 0 0 1.418367762274939e-08 0 3.692622732958391e-08 0 0 1:255 2:255 3:255 4:255 5:255 6:255 7:255 8:255 9:255 10:255 11:255 12:255 13:255 14:255 15:255 16:255 17:255 18:255 19:255 20:255 21:255 22:255 23:255 24:255 25:255 26:255 27:255 28:255 29:255 30:255 31:255 32:255 33:255 34:255 35:255 36:255 37:255 38:255 39:255 40:255 41:255 42:255 43:255 44:255 45:255 46:255 47:255 48:255 49:255 50:255 51:255 52:255 53:255 54:255 55:255 56:255 57:255 58:255 59:255 60:255 61:255 62:255 63:255 64:255 65:255 66:255 67:255 68:255 69:255 70:255 71:255 72:255 73:255 74:255 75:255 76:255 77:255 78:255 79:255 80:255 81:255 82:255 83:255 84:255 85:255 86:255 87:255 88:255 89:255 90:255 91:255 92:255 93:255 94:255 95:255 96:255 97:255 98:255 99:255 100:255 101:255 102:255 103:255 104:255 105:255 106:255 107:255 108:255 109:255 110:255 111:255 112:255 113:255 114:255 115:255 116:255 117:255 118:255 119:255 120:255 121:255 122:255 123:255 124:255 125:255 126:255 127:255 128:255 129:255 130:255 131:255 132:255 133:255 134:255 135:255 136:255 137:255 138:255 139:255 140:255 141:255 142:255 143:255 144:255 145:255 147:60 148:255 149:255 150:255 151:255 152:255 153:255 154:255 155:255 156:255 157:255 158:255 159:255 160:255 161:255 162:255 163:255 164:255 165:255 166:255 167:255 168:255 169:255 170:255 171:255 172:255 173:255 174:255 175:255 176:245 177:255 178:255 179:255 180:255 181:255 182:255 183:255 184:255 185:255 186:255 187:255 188:255 189:255 190:255 191:255 192:255 193:255 194:255 195:255 196:255 197:255 198:255 199:255 200:255 201:255 202:255 203:255 204:255 205:255 206:255 207:255 208:255 209:255 210:255 211:255 212:255 213:255 214:255 215:255 216:255 217:255 218:255 219:255 220:255 221:255 222:255 223:255 224:255 225:255 226:255 227:255 228:255 229:255 230:255 231:255 232:255 233:255 234:255 235:255 236:255 237:255 238:255 239:255 240:255 241:255 242:255 243:255 244:255 245:255 246:255 247:255 248:255 249:255 250:255 251:255 252:255 253:255 254:255 255:255 256:255 257:255 258:255 259:255 260:255 261:255 262:255 263:255 264:255 265:255 266:255 267:255 268:255 269:255 270:255 271:255 272:255 273:255 274:255 275:255 276:255 277:255 278:255 279:255 280:255 281:255 282:255 283:255 284:255 285:255 286:255 287:255 288:255 289:255 290:255 291:255 292:255 293:255 294:255 295:255 296:255 297:255 298:255 299:255 300:255 301:255 302:255 303:255 304:255 305:255 306:255 307:221 309:255 310:255 311:255 312:255 313:26 314:255 315:255 316:255 317:255 318:255 319:255 320:255 321:255 322:255 323:255 324:255 325:255 326:255 327:255 328:255 329:255 330:255 331:255 332:255 333:255 334:255 335:255 336:255 337:255 338:255 339:255 340:255 341:255 342:95 345:255 346:255 347:255 348:255 349:255 350:247 351:247 352:247 353:247 354:255 355:255 356:255 357:255 358:255 359:255 360:255 361:255 362:255 363:255 364:255 365:255 366:255 367:255 368:255 369:255 370:255 371:255 372:255 373:95 375:244 376:255 377:255 378:255 379:138 384:217 385:255 386:255 387:255 388:255 389:255 390:255 391:255 392:255 393:255 394:255 395:255 396:255 397:255 398:255 399:255 400:255 401:255 402:255 403:255 404:255 405:255 406:255 407:255 408:191 414:255 415:255 416:255 417:255 418:255 419:255 420:255 421:255 422:255 423:255 424:255 425:255 426:255 427:255 428:255 429:255 430:255 431:255 432:255 433:255 434:255 435:255 436:255 437:255 438:255 439:72 443:219 444:255 445:255 446:255 447:255 448:255 449:255 450:255 451:255 452:255 453:255 454:255 455:255 456:255 457:255 458:255 459:255 460:255 461:255 462:255 463:255 464:255 465:255 466:255 467:255 468:255 469:255 470:145 471:145 472:255 473:255 474:255 475:255 476:255 477:255 478:255 479:255 480:255 481:255 482:255 483:255 484:255 485:255 486:255 487:255 488:255 489:255 490:255 491:255 492:255 493:255 494:255 495:255 496:255 497:255 498:255 499:255 500:255 501:255 502:255 503:255 504:255 505:255 506:255 507:255 508:255 509:255 510:255 511:255 512:255 513:255 514:255 515:255 516:255 517:255 518:255 519:255 520:255 521:255 522:255 523:255 524:255 525:255 526:255 527:255 528:255 529:255 530:255 531:255 532:255 533:255 534:255 535:255 536:255 537:255 538:255 539:255 540:255 541:255 542:255 543:255 544:255 545:255 546:255 547:255 548:255 549:255 550:255 551:255 552:255 553:255 554:255 555:255 556:255 557:255 558:255 559:255 560:255 561:255 562:255 563:255 564:255 565:255 566:255 567:255 568:255 569:255 570:255 571:255 572:255 573:255 574:255 575:255 576:255 577:255 578:255 579:255 580:255 581:255 582:255 583:255 584:255 585:255 586:255 587:255 588:255 589:255 590:255 591:255 592:255 593:255 594:255 595:255 596:255 597:255 598:255 599:255 600:255 601:255 602:255 603:255 604:255 605:255 606:255 607:255 608:255 609:255 610:255 611:255 612:255 613:255 614:255 615:255 616:255 617:255 618:255 619:255 620:255 621:255 622:255 623:255 624:255 625:255 626:255 627:255 628:255 629:255 630:255 631:255 632:255 633:255 634:255 635:255 636:255 637:255 638:255 639:255 640:255 641:255 642:255 643:255 644:255 645:255 646:255 647:255 648:255 649:255 650:255 651:255 652:255 653:255 654:255 655:255 656:255 657:255 658:255 659:255 660:255 661:255 662:255 663:255 664:255 665:255 666:255 667:255 668:255 669:255 670:255 671:255 672:255 673:255 674:255 675:255 676:255 677:255 678:255 679:255 680:255 681:255 682:255 683:255 684:255 685:255 686:255 687:255 688:255 689:255 690:255 691:255 692:255 693:255 694:255 695:255 696:255 697:255 698:255 699:255 700:255 701:255 702:255 703:255 704:255 705:255 706:255 707:255 708:255 709:255 710:255 711:255 712:255 713:255 714:255 715:255 716:255 717:255 718:255 719:255 720:255 721:255 722:255 723:255 724:255 725:255 726:255 727:255 728:255 729:255 730:255 731:255 732:255 733:255 734:255 735:255 736:255 737:255 738:255 739:255 740:255 741:255 742:255 743:255 744:255 745:255 746:255 747:255 748:255 749:255 750:255 751:255 752:255 753:255 754:255 755:255 756:255 757:255 758:255 759:255 760:255 761:255 762:255 763:255 764:255 765:255 766:255 767:255 768:255 769:255 770:255 771:255 772:255 773:255 774:255 775:255 776:255 777:255 778:255 779:255 780:255 781:255 782:255 783:255 784:255 785:255 786:255 787:255 788:255 789:255 790:255 791:255 792:255 793:255 794:255 795:255 796:255 797:255 798:255 799:255 800:255 801:255 802:255 803:255 804:255 805:255 806:255 807:255 808:255 809:255 810:255 811:255 812:255 813:255 814:255 815:255 816:255 817:255 818:255 819:255 820:255 821:255 822:255 823:255 824:255 825:255 826:255 827:255 828:255 829:255 830:255 831:255 832:255 833:255 834:255 835:255 836:255 837:255 838:255 839:255 840:255 841:255 842:255 843:255 844:255 845:255 846:255 847:255 848:255 849:255 850:255 851:255 852:255 853:255 854:255 855:255 856:255 857:255 858:255 859:255 860:255 861:255 862:255 863:255 864:255 865:255 866:255 867:255 868:255 869:255 870:255 871:255 872:255 873:255 874:255 875:255 876:255 877:255 878:255 879:255 880:255 881:255 882:255 883:255 884:255 885:255 886:255 887:255 888:255 889:255 890:255 891:255 892:255 893:255 894:255 895:255 896:255 897:255 898:255 899:255 900:255 
0 0 3.881808542305186e-08 1.67662471488982e-08 3.786737993333006e-09 2.151612990374584e-08 2.558265350250303e-08 2.467124809410088e-09 0 1:255 2:255 3:255 4:255 5:255 6:255 7:255 8:255 9:255 10:255 11:255 12:255 13:255 14:255 15:255 16:255 17:255 18:255 19:255 20:255 21:255 22:255 23:255 24:255 25:255 26:255 27:255 28:255 29:255 30:255 31:255 32:255 33:255 34:255 35:255 36:255 37:255 38:255 39:255 40:255 41:255 42:255 43:255 44:255 45:255 46:255 47:255 48:255 49:255 50:255 51:255 52:255 53:255 54:255 55:255 56:255 57:255 58:255 59:255 60:255 61:255 62:255 63:255 64:255 65:255 66:255 67:255 68:255 69:255 70:255 71:255 72:255 73:255 74:255 75:255 76:255 77:255 78:255 79:255 80:255 81:255 82:255 83:255 84:255 85:255 86:255 87:255 88:255 89:255 90:255 91:255 92:255 93:255 94:255 95:255 96:255 97:255 98:255 99:255 100:255 101:255 102:255 103:255 104:255 105:255 106:255 107:255 108:255 109:255 110:255 111:255 112:255 113:255 114:255 115:255 116:255 117:255 118:255 119:255 120:255 121:255 122:255 123:255 124:255 125:255 126:255 127:255 128:255 129:255 130:255 131:255 132:255 133:255 134:255 135:255 136:255 137:255 138:255 139:255 140:255 141:255 142:255 143:255 144:255 145:255 146:255 147:255 148:255 149:255 150:255 151:255 152:255 153:255 154:255 155:255 156:255 157:255 158:255 159:255 160:255 161:255 162:255 163:255 164:255 165:255 166:255 167:255 168:255 169:255 170:255 171:255 172:255 173:255 174:255 175:255 176:255 177:255 178:255 179:255 180:255 181:255 182:255 183:255 184:255 185:255 186:255 187:255 188:255 189:255 190:255 191:255 192:255 193:255 194:255 195:255 196:255 197:255 198:255 199:255 200:255 201:255 202:255 203:255 204:255 205:255 206:255 207:255 208:255 209:255 210:255 211:255 212:255 213:255 214:255 215:255 216:255 217:255 218:64 219:255 220:255 221:255 222:255 223:255 224:255 225:255 226:255 227:255 228:255 229:255 230:255 231:255 232:255 233:255 234:255 235:255 236:255 237:255 238:255 239:255 240:255 241:255 242:255 243:255 244:255 245:255 246:255 250:245 251:255 252:255 253:255 254:255 255:255 256:255 257:255 258:255 259:255 260:255 261:255 262:255 263:255 264:255 265:255 266:255 267:255 268:255 269:255 270:255 271:255 272:255 273:255 274:255 275:255 276:255 277:222 280:115 281:255 282:255 283:255 284:255 285:255 286:255 287:255 288:255 289:255 290:255 291:255 292:255 293:255 294:255 295:255 296:255 297:255 298:255 299:255 300:255 301:255 302:255 303:255 304:255 305:255 306:255 307:255 308:204 309:51 310:143 311:255 312:255 313:255 314:255 315:255 316:255 317:255 318:255 319:255 320:255 321:255 322:255 323:255 324:255 325:255 326:255 327:255 328:255 329:255 330:255 331:255 332:255 333:255 334:255 335:255 336:255 337:255 338:255 339:255 340:255 341:255 342:255 343:255 344:255 345:255 346:255 347:255 348:255 349:255 350:255 351:255 352:255 353:255 354:255 355:255 356:255 357:255 358:255 359:255 360:255 361:255 362:255 363:255 364:255 365:255 366:255 367:255 368:255 369:255 370:255 371:255 372:255 373:255 374:255 375:255 376:255 377:255 378:255 379:255 380:255 381:255 382:255 383:255 384:255 385:255 386:255 387:255 388:255 389:255 390:255 391:255 392:255 393:255 394:255 395:255 396:255 397:255 398:255 399:255 400:255 401:255 402:255 403:255 404:255 405:255 406:255 407:255 408:255 409:255 410:255 411:255 412:255 413:255 414:255 415:255 416:255 417:255 418:255 419:255 420:255 421:255 422:255 423:255 424:255 425:255 426:255 427:255 428:255 429:255 430:255 431:255 432:255 433:255 434:255 435:255 436:255 437:255 438:255 439:255 440:255 441:255 442:255 443:255 444:255 445:255 446:255 447:255 448:255 449:255 450:255 451:255 452:255 453:255 454:255 455:255 456:255 457:255 458:255 459:255 460:255 461:255 462:255 463:255 464:255 465:255 466:255 467:255 468:255 469:255 470:255 471:255 472:255 473:255 474:255 475:255 476:255 477:255 478:255 479:255 480:255 481:255 482:255 483:255 484:255 485:255 486:255 487:255 488:255 489:255 490:255 491:255 492:255 493:255 494:255 495:255 496:255 497:255 498:255 499:255 500:255 501:255 502:255 503:255 504:255 505:255 506:255 507:255 508:255 509:255 510:255 511:255 512:255 513:255 514:255 515:93 516:12 517:255 518:255 519:255 520:255 521:255 522:255 523:255 524:255 525:255 526:255 527:255 528:255 529:255 530:255 531:255 532:255 533:255 534:255 535:255 536:255 537:255 538:255 539:255 540:255 541:255 542:255 543:255 544:255 546:13 547:255 548:255 549:255 550:255 551:255 552:255 553:255 554:255 555:255 556:255 557:255 558:255 559:255 560:255 561:255 562:255 563:255 564:255 565:255 566:255 567:255 568:255 569:255 570:255 571:255 572:255 573:255 574:255 575:10 576:255 577:255 578:255 579:255 580:255 581:255 582:255 583:255 584:51 585:245 586:255 587:255 588:255 589:255 590:163 591:51 592:51 593:255 594:255 595:255 596:255 597:255 598:255 599:255 600:255 601:255 602:255 603:255 604:255 605:255 606:255 607:255 608:255 609:255 610:255 611:255 612:111 616:45 617:255 618:255 619:177 623:255 624:255 625:255 626:255 627:255 628:255 629:255 630:255 631:255 632:255 633:255 634:255 635:255 636:255 637:255 638:255 639:255 640:255 641:255 642:89 646:13 647:255 648:255 652:249 653:255 654:255 655:255 656:255 657:255 658:255 659:255 660:255 661:255 662:255 663:255 664:255 665:255 666:255 667:255 668:255 669:255 670:255 671:255 672:255 673:64 676:255 677:255 678:255 679:255 680:255 681:255 682:255 683:255 684:255 685:255 686:255 687:255 688:255 689:255 690:255 691:255 692:255 693:255 694:255 695:255 696:255 697:255 698:255 699:255 700:255 701:255 702:255 703:255 704:255 705:255 706:255 707:255 708:255 709:255 710:255 711:255 712:255 713:255 714:255 715:255 716:255 717:255 718:255 719:255 720:255 721:255 722:255 723:255 724:255 725:255 726:255 727:255 728:255 729:255 730:255 731:255 732:255 733:255 734:255 735:255 736:255 737:255 738:255 739:255 740:255 741:255 742:255 743:255 744:255 745:255 746:255 747:255 748:255 749:255 750:255 751:255 752:255 753:255 754:255 755:255 756:255 757:255 758:255 759:255 760:255 761:255 762:255 763:255 764:255 765:255 766:255 767:255 768:255 769:255 770:255 771:255 772:255 773:255 774:255 775:255 776:255 777:255 778:255 779:255 780:255 781:255 782:255 783:255 784:255 785:255 786:255 787:255 788:255 789:255 790:255 791:255 792:255 793:255 794:255 795:255 796:255 797:255 798:255 799:255 800:255 801:255 802:255 803:255 804:255 805:255 806:255 807:255 808:255 809:255 810:255 811:255 812:255 813:255 814:255 815:255 816:255 817:255 818:255 819:255 820:255 821:255 822:255 823:255 824:255 825:255 826:255 827:255 828:255 829:255 830:255 831:255 832:255 833:255 834:255 835:255 836:255 837:255 838:255 839:255 840:255 841:255 842:255 843:255 844:255 845:255 846:255 847:255 848:255 849:255 850:255 851:255 852:255 853:255 854:255 855:255 856:255 857:255 858:255 859:255 860:255 861:255 862:255 863:255 864:255 865:255 866:255 867:255 868:255 869:255 870:255 871:255 872:255 873:255 874:255 875:255 876:255 877:255 878:255 879:255 880:255 881:255 882:255 883:255 884:255 885:255 886:255 887:255 888:255 889:255 890:255 891:255 892:255 893:255 894:255 895:255 896:255 897:255 898:255 899:255 900:255 
0 0 0 2.057312657719791e-09 0 0 0 0 0 1:255 2:255 3:255 4:255 5:255 6:255 7:255 8:255 9:255 10:255 11:255 12:255 13:255 14:255 15:255 16:255 17:255 18:255 19:255 20:255 21:255 22:255 23:255 24:255 25:255 26:255 27:255 28:255 29:255 30:255 31:255 32:255 33:255 34:255 35:255 36:255 37:255 38:255 39:255 40:255 41:255 42:255 43:255 44:255 45:255 46:255 47:255 48:255 49:255 50:255 51:255 52:255 53:255 54:255 55:255 56:255 57:255 58:255 59:255 60:255 61:255 62:255 63:255 64:255 65:255 66:255 67:255 68:255 69:255 70:255 71:255 72:255 73:255 74:255 75:255 76:255 77:255 78:255 79:255 80:255 81:255 82:255 83:255 84:255 85:255 86:255 87:255 88:255 89:255 90:255 91:255 92:255 93:255 94:255 95:255 96:255 97:255 98:255 99:255 100:255 101:255 102:255 103:255 104:255 105:255 106:255 107:255 108:255 109:255 110:255 111:255 112:255 113:255 114:255 115:255 116:255 117:255 118:255 119:255 120:255 121:255 122:255 123:255 124:255 125:255 126:255 127:255 128:255 129:255 130:255 131:255 132:255 133:255 134:255 135:255 136:255 137:255 138:255 139:255 140:255 141:229 143:19 144:255 145:255 146:255 147:255 148:255 149:255 150:255 151:255 152:255 153:255 154:255 155:255 156:255 157:255 158:255 159:255 160:255 161:255 162:255 163:255 164:255 165:255 166:255 167:255 168:255 169:255 170:228 172:39 173:255 174:255 175:255 176:255 177:255 178:255 179:255 180:255 181:255 182:255 183:255 184:255 185:255 186:255 187:255 188:255 189:255 190:255 191:255 192:255 193:255 194:255 195:255 196:250 198:185 199:255 200:140 201:51 202:255 203:255 204:255 205:255 206:255 207:255 208:255 209:255 210:255 211:255 212:255 213:255 214:255 215:255 216:255 217:255 218:255 219:255 220:255 221:255 222:255 223:255 224:255 225:255 228:255 229:255 230:255 231:255 232:255 233:255 234:255 235:255 236:255 237:255 238:255 239:255 240:255 241:255 242:255 243:255 244:255 245:255 246:255 247:255 248:255 249:255 250:255 251:255 252:255 253:255 254:255 255:5 257:38 258:255 259:255 260:255 261:255 262:255 263:255 264:255 265:255 266:255 267:255 268:255 269:255 270:255 271:255 272:255 273:255 274:255 275:60 276:255 277:255 278:255 279:255 280:255 281:255 282:255 283:255 284:255 286:10 287:255 288:255 289:255 290:255 291:255 292:255 293:255 294:255 295:255 296:255 297:255 298:255 299:255 300:255 301:255 302:255 303:255 304:255 306:255 307:255 308:255 309:255 310:255 311:255 312:255 313:255 314:255 315:231 316:255 317:255 318:255 319:255 320:255 321:255 322:255 323:255 324:255 325:255 326:255 327:255 328:255 329:255 330:255 331:255 332:255 333:255 334:38 335:8 336:255 337:255 338:255 339:255 340:255 341:255 342:255 343:255 344:255 345:255 346:255 347:255 348:255 349:255 350:255 351:255 352:249 355:255 356:255 357:255 358:255 359:255 360:255 361:255 362:255 363:255 364:255 365:255 366:255 367:255 368:255 369:255 370:255 371:255 372:255 373:255 374:255 375:255 376:255 377:255 378:255 379:255 380:255 381:232 385:242 386:255 387:255 388:255 389:255 390:255 391:255 392:255 393:255 394:255 395:255 396:255 397:255 398:255 399:255 400:255 401:255 402:255 403:255 404:255 405:255 406:255 407:255 408:255 409:255 410:255 415:246 416:255 417:255 418:255 419:255 420:255 421:255 422:255 423:255 424:255 425:255 426:255 427:255 428:255 429:255 430:255 431:255 432:255 433:255 434:255 435:255 436:255 437:255 438:255 439:255 440:190 444:233 445:255 446:255 447:255 448:255 449:255 450:255 451:255 452:255 453:255 454:255 455:255 456:255 457:255 458:255 459:255 460:255 461:255 462:255 463:255 464:255 465:255 466:255 467:255 468:255 469:255 470:255 471:194 472:145 473:227 474:255 475:255 476:255 477:255 478:255 479:255 480:255 481:255 482:255 483:255 484:255 485:255 486:255 487:255 488:255 489:255 490:255 491:255 492:255 493:255 494:255 495:255 496:255 497:255 498:255 499:255 500:255 501:255 502:255 503:255 504:255 505:255 506:255 507:255 508:255 509:255 510:255 511:255 512:255 513:255 514:255 515:255 516:255 517:255 518:255 519:255 520:255 521:255 522:255 523:255 524:255 525:255 526:255 527:255 528:255 529:255 530:255 531:255 532:255 533:255 534:255 535:255 536:255 537:255 538:255 539:255 540:255 541:255 542:255 543:255 544:255 545:255 546:255 547:255 548:255 549:255 550:255 551:255 552:255 553:255 554:255 555:255 556:255 557:255 558:255 559:255 560:255 561:255 562:255 563:255 564:255 565:255 566:255 567:255 568:255 569:255 570:255 571:255 572:255 573:255 574:255 575:255 576:255 577:255 578:255 579:255 580:255 581:255 582:255 583:255 584:255 585:255 586:255 587:255 588:255 589:255 590:255 591:255 592:255 593:255 594:255 595:255 596:255 597:255 598:255 599:255 600:255 601:255 602:255 603:255 604:255 605:255 606:255 607:255 608:255 609:255 610:255 611:255 612:255 613:255 614:255 615:255 616:255 617:255 618:255 619:255 620:255 621:255 622:255 623:255 624:255 625:255 626:255 627:255 628:255 629:255 630:255 631:255 632:255 633:255 634:255 635:255 636:255 637:255 638:255 639:255 640:255 641:255 642:255 643:255 644:255 645:255 646:255 647:255 648:255 649:255 650:255 651:255 652:255 653:255 654:255 655:255 656:255 657:255 658:255 659:255 660:255 661:255 662:255 663:255 664:255 665:255 666:255 667:255 668:255 669:255 670:255 671:255 672:255 673:255 674:255 675:255 676:255 677:255 678:255 679:255 680:255 681:255 682:255 683:255 684:255 685:255 686:255 687:255 688:255 689:255 690:255 691:255 692:255 693:255 694:255 695:255 696:255 697:255 698:255 699:255 700:255 701:255 702:255 703:255 704:255 705:255 706:255 707:255 708:255 709:255 710:255 711:255 712:255 713:255 714:255 715:255 716:255 717:255 718:255 719:255 720:255 721:255 722:255 723:255 724:255 725:255 726:255 727:255 728:255 729:255 730:255 731:255 732:255 733:255 734:255 735:255 736:255 737:255 738:255 739:255 740:255 741:255 742:255 743:255 744:255 745:255 746:255 747:255 748:255 749:255 750:255 751:255 752:255 753:255 754:255 755:255 756:255 757:255 758:255 759:255 760:255 761:255 762:255 763:255 764:255 765:255 766:255 767:255 768:255 769:255 770:255 771:255 772:255 773:255 774:255 775:255 776:255 777:255 778:255 779:255 780:255 781:255 782:255 783:255 784:255 785:255 786:255 787:255 788:255 789:255 790:255 791:255 792:255 793:255 794:255 795:255 796:255 797:255 798:255 799:255 800:255 801:255 802:255 803:255 804:255 805:255 806:255 807:255 808:255 809:255 810:255 811:255 812:255 813:255 814:255 815:255 816:255 817:255 818:255 819:255 820:255 821:255 822:255 823:255 824:255 825:255 826:255 827:255 828:255 829:255 830:255 831:255 832:255 833:255 834:255 835:255 836:255 837:255 838:255 839:255 840:255 841:255 842:255 843:255 844:255 845:255 846:255 847:255 848:255 849:255 850:255 851:255 852:255 853:255 854:255 855:255 856:255 857:255 858:255 859:255 860:255 861:255 862:255 863:255 864:255 865:255 866:255 867:255 868:255 869:255 870:255 871:255 872:255 873:255 874:255 875:255 876:255 877:255 878:255 879:255 880:255 881:255 882:255 883:255 884:255 885:255 886:255 887:255 888:255 889:255 890:255 891:255 892:255 893:255 894:255 895:255 896:255 897:255 898:255 899:255 900:255 
0 0 0 0 0 3.32707366197479e-09 0 0 0 1:255 2:255 3:255 4:255 5:255 6:255 7:255 8:255 9:255 10:255 11:255 12:255 13:255 14:255 15:255 16:255 17:255 18:255 19:255 20:255 21:255 22:255 23:255 24:255 25:255 26:255 27:255 28:255 29:255 30:255 31:255 32:255 33:255 34:255 35:255 36:255 37:255 38:255 39:255 40:255 41:255 42:255 43:255 44:255 45:255 46:255 47:255 48:255 49:255 50:255 51:255 52:255 53:255 54:255 55:255 56:255 57:255 58:255 59:255 60:255 61:255 62:255 63:255 64:255 65:255 66:255 67:255 68:255 69:255 70:255 71:255 72:255 73:255 74:255 75:255 76:255 77:255 78:255 79:255 80:255 81:255 82:255 83:255 84:255 85:255 86:255 87:255 88:255 89:255 90:255 91:255 92:255 93:255 94:255 95:255 96:255 97:255 98:255 99:255 100:255 101:255 102:255 103:255 104:255 105:255 106:255 107:255 108:255 109:255 110:255 111:255 112:255 113:255 114:255 115:255 116:255 117:255 118:255 119:255 120:255 121:255 122:255 123:255 124:255 125:255 126:255 127:255 128:255 129:255 130:255 131:255 132:255 133:255 134:255 135:255 136:255 137:255 138:255 139:255 140:255 141:255 142:255 143:255 144:255 145:255 146:255 147:255 148:255 149:255 150:255 151:255 152:255 153:255 154:255 155:255 156:255 157:255 158:255 159:255 160:255 161:255 162:255 163:255 164:255 165:255 166:255 167:255 168:255 169:255 170:255 171:255 172:255 173:255 174:255 175:255 176:255 177:255 178:255 179:255 180:255 181:255 182:255 183:255 184:255 185:255 186:255 187:255 188:255 189:255 190:255 191:255 192:255 193:255 194:255 195:255 196:255 197:255 198:255 199:255 200:255 201:255 202:255 203:255 204:255 205:255 206:255 207:255 208:255 209:255 210:255 211:255 212:255 213:255 214:255 215:255 216:255 217:255 218:255 219:255 220:255 221:255 222:255 223:255 224:255 225:255 226:255 227:255 228:255 229:255 230:255 231:255 232:255 233:255 234:255 235:255 236:255 237:255 238:255 239:255 240:255 241:255 242:255 243:255 244:255 245:255 246:255 247:255 248:255 249:255 250:255 251:255 252:255 253:255 254:255 255:255 256:255 257:255 258:255 259:255 260:255 261:255 262:255 263:255 264:255 265:255 266:255 267:255 268:255 269:255 270:255 271:255 272:255 273:255 274:255 275:255 276:255 277:255 278:255 279:255 280:255 281:255 282:255 283:255 284:255 285:255 286:255 287:255 288:255 289:255 290:255 291:255 292:255 293:255 294:255 295:255 296:255 297:255 298:255 299:255 300:255 301:255 302:255 303:255 304:255 305:255 306:255 307:255 308:255 309:255 310:255 311:255 312:255 313:255 314:255 315:255 316:255 317:255 318:255 319:255 320:255 321:255 322:255 323:255 324:255 325:255 326:255 327:255 328:255 329:255 330:255 331:255 332:255 333:255 334:255 335:255 336:255 337:255 338:255 339:255 340:255 341:255 342:255 343:255 344:255 345:255 346:255 347:255 348:255 349:255 350:255 351:255 352:255 353:255 354:255 355:255 356:255 357:255 358:255 359:255 360:255 361:255 362:255 363:255 364:255 365:255 366:255 367:255 368:255 369:255 370:255 371:255 372:255 373:255 374:255 375:255 376:255 377:255 378:255 379:255 380:255 381:255 382:255 383:255 384:255 385:255 386:255 387:255 388:255 389:255 390:255 391:255 392:255 393:255 394:255 395:255 396:255 397:255 398:255 399:255 400:255 401:255 402:255 403:255 404:255 405:255 406:255 407:255 408:255 409:255 410:255 411:255 412:255 413:255 414:255 415:255 416:255 417:255 418:255 419:255 420:255 421:255 422:255 423:255 424:255 425:255 426:255 427:255 428:255 429:255 430:255 431:255 432:255 433:255 434:255 435:255 436:255 437:255 438:255 439:255 440:255 441:255 442:255 443:255 444:255 445:255 446:255 447:255 448:255 449:255 450:255 451:255 452:255 453:255 454:255 455:255 456:255 457:255 458:183 459:255 460:255 461:255 462:255 463:255 464:255 465:255 466:255 467:255 468:255 469:255 470:255 471:255 472:255 473:255 474:255 475:255 476:255 477:255 478:255 479:255 480:255 481:255 482:255 483:255 484:255 485:255 486:255 487:48 490:255 491:255 492:255 493:255 494:255 495:255 496:255 497:255 498:255 499:255 500:255 501:255 502:255 503:255 504:255 505:255 506:255 507:255 508:255 509:255 510:255 511:255 512:255 513:255 514:255 515:255 516:205 520:195 521:255 522:255 523:255 524:255 525:255 526:255 527:255 528:255 529:255 530:255 531:255 532:255 533:255 534:255 535:255 536:255 537:255 538:255 539:255 540:255 541:255 542:255 543:255 544:255 545:255 546:195 550:253 551:255 552:255 553:255 554:255 555:255 556:255 557:3 559:8 560:255 561:255 562:255 563:255 564:255 565:255 566:255 567:255 568:255 569:255 570:255 571:255 572:255 573:255 574:255 575:255 576:255 577:26 578:26 579:171 580:255 581:255 582:255 583:255 584:255 585:255 586:110 590:255 591:255 592:255 593:255 594:255 595:255 596:255 597:255 598:255 599:255 600:255 601:255 602:255 603:255 604:255 605:255 606:255 607:255 608:255 609:255 610:255 611:255 612:255 613:255 614:255 615:255 616:255 617:255 618:92 619:60 620:255 621:255 622:255 623:255 624:255 625:255 626:249 627:255 628:255 629:255 630:255 631:255 632:255 633:255 634:255 635:255 636:255 637:255 638:255 639:255 640:255 641:255 642:255 643:255 644:255 645:255 646:255 647:255 648:255 649:255 650:255 651:255 652:255 653:255 654:255 657:255 658:255 659:255 660:255 661:255 662:255 663:255 664:255 665:255 666:255 667:255 668:255 669:255 670:255 671:255 672:255 673:255 674:255 675:255 676:255 677:255 678:255 679:255 680:255 681:255 682:255 683:255 684:255 685:30 687:255 688:255 689:255 690:255 691:255 692:255 693:255 694:255 695:255 696:255 697:255 698:255 699:255 700:255 701:255 702:255 703:255 704:255 705:255 706:255 707:255 708:255 709:255 710:255 711:255 712:255 713:255 714:255 715:255 716:255 717:255 718:255 719:255 720:255 721:255 722:255 723:255 724:255 725:255 726:255 727:255 728:255 729:255 730:255 731:255 732:255 733:255 734:255 735:255 736:255 737:255 738:255 739:255 740:255 741:255 742:255 743:255 744:255 745:255 746:255 747:255 748:255 749:255 750:255 751:255 752:255 753:255 754:255 755:255 756:255 757:255 758:255 759:255 760:255 761:255 762:255 763:255 764:255 765:255 766:255 767:255 768:255 769:255 770:255 771:255 772:255 773:255 774:255 775:255 776:255 777:255 778:255 779:255 780:255 781:255 782:255 783:255 784:255 785:255 786:255 787:255 788:255 789:255 790:255 791:255 792:255 793:255 794:255 795:255 796:255 797:255 798:255 799:255 800:255 801:255 802:255 803:255 804:255 805:255 806:255 807:255 808:255 809:255 810:255 811:255 812:255 813:255 814:255 815:255 816:255 817:255 818:255 819:255 820:255 821:255 822:255 823:255 824:255 825:255 826:255 827:255 828:255 829:255 830:255 831:255 832:255 833:255 834:255 835:255 836:255 837:255 838:255 839:255 840:255 841:255 842:255 843:255 844:255 845:255 846:255 847:255 848:255 849:255 850:255 851:255 852:255 853:255 854:255 855:255 856:255 857:255 858:255 859:255 860:255 861:255 862:255 863:255 864:255 865:255 866:255 867:255 868:255 869:255 870:255 871:255 872:255 873:255 874:255 875:255 876:255 877:255 878:255 879:255 880:255 881:255 882:255 883:255 884:255 885:255 886:255 887:255 888:255 889:255 890:255 891:255 892:255 893:255 894:255 895:255 896:255 897:255 898:255 899:255 900:255 
3.020934131820041e-08 1.36440122871028e-08 8.279178090536804e-08 3.445371799392043e-08 2.817894135718009e-09 0 3.767871504654874e-08 3.65107432137429e-08 3.104654805535485e-08 1:255 2:255 3:255 4:255 5:255 6:255 7:255 8:255 9:255 10:255 11:255 12:255 13:255 14:255 15:255 16:255 17:255 18:255 19:255 20:255 21:255 22:255 23:255 24:255 25:255 26:255 27:255 28:255 29:255 30:255 31:255 32:255 33:255 34:255 35:255 36:255 37:255 38:255 39:255 40:255 41:255 42:255 43:255 44:255 45:255 46:255 47:255 48:255 49:255 50:255 51:255 52:255 53:255 54:255 55:255 56:255 57:255 58:255 59:255 60:255 61:255 62:255 63:255 64:255 65:255 66:255 67:255 68:255 69:255 70:255 71:255 72:255 73:255 74:255 75:255 76:255 77:255 78:255 79:255 80:255 81:255 82:255 83:255 84:255 85:255 86:255 87:255 88:255 89:255 90:255 91:255 92:255 93:255 94:255 95:255 96:255 97:255 98:255 99:255 100:255 101:255 102:255 103:255 104:255 105:255 106:243 107:255 108:255 109:255 110:255 111:255 112:255 113:255 114:255 115:255 116:255 117:255 118:255 119:255 120:255 121:255 122:255 123:255 124:255 125:255 126:255 127:255 128:255 129:255 130:152 131:152 132:255 133:255 134:255 135:255 136:255 137:255 138:255 139:80 142:246 143:255 144:255 145:255 146:255 147:255 148:255 149:255 150:255 151:255 152:255 153:255 154:255 155:255 156:255 157:255 158:255 159:255 160:255 161:255 162:255 163:255 164:255 165:255 166:255 167:255 168:255 172:187 173:255 174:255 175:255 176:255 177:255 178:255 179:255 180:255 181:255 182:255 183:255 184:255 185:255 186:255 187:255 188:255 189:255 190:255 191:203 192:255 193:255 194:255 195:255 196:255 197:255 198:255 199:166 201:51 202:255 203:255 204:255 205:255 206:255 207:255 208:255 209:255 210:255 211:255 212:255 213:255 214:255 215:255 216:255 217:255 218:255 219:255 220:198 222:166 223:255 224:255 225:255 226:255 227:255 228:255 229:166 231:140 232:255 233:255 234:255 235:255 236:255 237:255 238:255 239:255 240:255 241:255 242:255 243:255 244:255 245:255 246:255 247:255 248:255 249:255 250:140 252:255 253:255 254:255 255:255 256:255 257:255 258:255 259:166 261:140 262:255 263:255 264:255 265:255 266:255 267:255 268:255 269:255 270:255 271:255 272:255 273:255 274:255 275:255 276:255 277:255 278:255 279:255 280:228 281:228 282:255 283:255 284:255 285:255 286:255 287:255 288:255 289:255 290:107 291:255 292:255 293:255 294:255 295:255 296:255 297:255 298:255 299:255 300:255 301:255 302:255 303:255 304:255 305:255 306:255 307:255 308:255 309:255 310:255 311:255 312:255 313:255 314:255 315:255 316:255 317:255 318:255 319:255 320:255 321:255 322:255 323:255 324:255 325:255 326:255 327:255 328:255 329:255 330:255 331:255 332:255 333:255 334:255 335:255 336:255 337:255 338:255 339:255 340:255 341:255 342:255 343:255 344:255 345:255 346:255 347:255 348:255 349:255 350:255 351:255 352:255 353:255 354:255 355:255 356:255 357:255 358:255 359:255 360:255 361:255 362:255 363:255 364:255 365:255 366:255 367:255 368:255 369:255 370:255 371:255 372:255 373:255 374:255 375:255 376:255 377:255 378:255 379:255 380:255 381:255 382:255 383:255 384:255 385:255 386:255 387:255 388:255 389:255 390:255 391:255 392:255 393:255 394:255 395:255 396:255 397:255 398:255 399:255 400:255 401:255 402:255 403:255 404:255 405:255 406:255 407:255 408:255 409:255 410:255 411:255 412:255 413:255 414:255 415:255 416:255 417:255 418:255 419:255 420:255 421:255 422:255 423:255 424:255 425:255 426:255 427:255 428:255 429:255 430:255 431:255 432:255 433:255 434:255 435:255 436:255 437:255 438:255 439:255 440:205 441:205 442:255 443:255 444:255 445:255 446:255 447:255 448:255 449:255 450:255 451:255 452:255 453:255 454:255 455:255 456:255 457:255 458:255 459:255 460:255 461:255 462:255 463:255 464:255 465:255 466:255 467:255 468:255 469:204 471:79 472:255 473:255 474:255 475:255 476:255 477:255 478:255 479:255 480:255 481:255 482:255 483:255 484:255 485:255 486:255 487:255 488:255 489:255 490:255 491:255 492:255 493:255 494:255 495:255 496:255 497:255 498:255 499:116 501:221 502:255 503:255 504:255 505:255 506:255 507:255 508:255 509:255 510:255 511:255 512:255 513:255 514:255 515:255 516:255 517:255 518:255 519:255 520:255 521:255 522:255 523:255 524:255 525:255 526:255 527:255 528:255 529:240 530:255 531:255 532:255 533:255 534:255 535:255 536:255 537:255 538:255 539:255 540:255 541:255 542:255 543:255 544:255 545:255 546:255 547:255 548:255 549:255 550:255 551:255 552:255 553:255 554:255 555:255 556:255 557:255 558:255 559:255 560:255 561:255 562:255 563:255 564:255 565:255 566:255 567:255 568:255 569:255 570:255 571:255 572:255 573:255 574:255 575:255 576:255 577:255 578:255 579:255 580:255 581:255 582:255 583:255 584:255 585:255 586:255 587:255 588:255 589:255 590:255 591:255 592:255 593:255 594:255 595:255 596:255 597:255 598:255 599:255 600:255 601:255 602:255 603:255 604:255 605:255 606:255 607:255 608:255 609:255 610:255 611:255 612:255 613:255 614:255 615:255 616:255 617:255 618:255 619:255 620:255 621:255 622:255 623:255 624:255 625:255 626:255 627:255 628:255 629:255 630:255 631:255 632:255 633:255 634:255 635:255 636:255 637:255 638:255 639:255 640:255 641:255 642:255 643:255 644:255 645:255 646:255 647:255 648:255 649:255 650:255 651:255 652:255 653:255 654:255 655:255 656:255 657:255 658:255 659:255 660:255 661:255 662:255 663:255 664:255 665:255 666:255 667:255 668:255 669:255 670:255 671:255 672:255 673:255 674:255 675:255 676:255 677:255 678:255 679:255 680:255 681:255 682:255 683:255 684:255 685:255 686:255 687:255 688:255 689:255 690:255 691:255 692:255 693:255 694:255 695:255 696:255 697:255 698:255 699:255 700:255 701:255 702:255 703:255 704:255 705:255 706:255 707:255 708:255 709:255 710:255 711:255 712:255 713:255 714:255 715:255 716:255 717:255 718:255 719:255 720:255 721:255 722:255 723:255 724:255 725:255 726:255 727:255 728:255 729:255 730:255 731:255 732:255 733:255 734:255 735:255 736:255 737:255 738:255 739:255 740:255 741:255 742:255 743:255 744:255 745:255 746:255 747:255 748:255 749:255 750:255 751:255 752:255 753:255 754:255 755:255 756:255 757:255 758:255 759:255 760:255 761:255 762:255 763:255 764:255 765:255 766:255 767:255 768:255 769:255 770:255 771:255 772:255 773:255 774:255 775:255 776:255 777:255 778:255 779:255 780:255 781:255 782:255 783:255 784:255 785:255 786:255 787:255 788:255 789:255 790:255 791:255 792:255 793:255 794:255 795:255 796:255 797:255 798:255 799:255 800:255 801:255 802:255 803:255 804:255 805:255 806:255 807:255 808:255 809:255 810:255 811:255 812:255 813:255 814:255 815:255 816:255 817:255 818:255 819:255 820:255 821:255 822:255 823:255 824:255 825:255 826:255 827:255 828:255 829:255 830:255 831:255 832:255 833:255 834:255 835:255 836:255 837:255 838:255 839:255 840:255 841:255 842:255 843:255 844:255 845:255 846:255 847:255 848:255 849:255 850:255 851:255 852:255 853:255 854:255 855:255 856:255 857:255 858:255 859:255 860:255 861:255 862:255 863:255 864:255 865:255 866:255 867:255 868:255 869:255 870:255 871:255 872:255 873:255 874:255 875:255 876:255 877:255 878:255 879:255 880:255 881:255 882:255 883:255 884:255 885:255 886:255 887:255 888:255 889:255 890:255 891:255 892:255 893:255 894:255 895:255 896:255 897:255 898:255 899:255 900:255 
0 0 0 0 0 0 2.572373439126107e-08 0 0 1:255 2:255 3:255 4:255 5:255 6:255 7:255 8:255 9:255 10:255 11:255 12:255 13:255 14:255 15:255 16:255 17:255 18:255 19:255 20:255 21:255 22:255 23:255 24:255 25:255 26:255 27:255 28:255 29:255 30:255 31:255 32:255 33:255 34:255 35:255 36:255 37:255 38:255 39:255 40:255 41:255 42:255 43:255 44:255 45:255 46:255 47:255 48:255 49:255 50:255 51:255 52:255 53:255 54:255 55:255 56:255 57:255 58:255 59:255 60:255 61:255 62:255 63:255 64:255 65:255 66:255 67:255 68:255 69:255 70:255 71:255 72:255 73:255 74:255 75:255 76:255 77:255 78:255 79:255 80:255 81:255 82:255 83:255 84:255 85:255 86:255 87:255 88:255 89:255 90:255 91:255 92:255 93:255 94:255 95:255 96:255 97:255 98:255 99:255 100:255 101:255 102:255 103:255 104:255 105:255 106:255 107:255 108:255 109:255 110:255 111:255 112:255 113:255 114:255 115:255 116:255 117:255 118:255 119:255 120:255 121:255 122:255 123:255 124:255 125:255 126:255 127:255 128:255 129:255 130:255 131:255 132:255 133:255 134:255 135:255 136:255 137:255 138:255 139:255 140:255 141:255 142:255 143:255 144:255 145:255 146:255 147:255 148:255 149:255 150:255 151:255 152:255 153:255 154:255 155:255 156:255 157:255 158:255 159:255 160:255 161:255 162:255 163:255 164:255 165:255 166:255 167:255 168:255 169:255 170:255 171:255 172:255 173:255 174:255 175:255 176:255 177:255 178:255 179:255 180:255 181:255 182:255 183:255 184:255 185:255 186:255 187:255 188:255 189:255 190:255 191:255 192:255 193:255 194:255 195:255 196:255 197:255 198:255 199:255 200:255 201:255 202:255 203:255 204:255 205:255 206:255 207:255 208:255 209:255 210:255 211:255 212:255 213:255 214:255 215:255 216:255 217:255 218:255 219:255 220:255 221:255 222:255 223:255 224:255 225:255 226:255 227:255 228:255 229:255 230:255 231:255 232:255 233:255 234:255 235:255 236:255 237:255 238:255 239:255 240:255 241:255 242:255 243:255 244:255 245:255 246:255 247:255 248:255 249:255 250:255 251:255 252:255 253:255 254:255 255:255 256:255 257:255 258:255 259:255 260:255 261:255 262:255 263:255 264:255 265:255 266:255 267:255 268:255 269:255 270:255 271:255 272:255 273:255 274:255 275:255 276:255 277:255 278:255 279:255 280:255 281:255 282:255 283:255 284:255 285:255 286:255 287:255 288:255 289:255 290:255 291:255 292:255 293:255 294:255 295:255 296:255 297:255 298:255 299:255 300:255 301:255 302:255 303:255 304:255 305:255 306:255 307:222 308:255 309:255 310:255 311:255 312:255 313:255 314:255 315:255 316:255 317:255 318:255 319:255 320:255 321:255 322:255 323:255 324:255 325:255 326:255 327:255 328:255 329:255 330:255 331:255 332:255 333:255 334:255 335:255 336:255 337:136 338:255 339:255 340:255 341:255 342:255 343:255 344:255 345:255 346:255 347:255 348:255 349:255 350:255 351:255 352:255 353:255 354:255 355:255 356:255 357:255 358:255 359:255 360:255 361:255 362:255 363:255 364:255 365:255 366:255 367:255 368:255 369:255 370:255 371:255 372:255 373:255 374:229 375:255 376:255 377:255 378:255 379:255 380:255 381:255 382:255 383:255 384:255 385:255 386:255 387:255 388:255 389:255 390:255 391:255 392:255 393:255 394:255 395:255 396:255 397:255 398:255 399:255 400:255 401:255 402:255 403:255 405:110 406:255 407:255 408:255 409:255 410:255 411:255 412:255 413:255 414:255 415:255 416:255 417:255 418:255 419:255 420:255 421:255 422:255 423:255 424:255 425:255 426:255 427:255 428:255 429:255 430:255 431:255 432:255 433:255 434:214 435:255 436:255 437:255 438:255 439:255 440:255 441:255 442:255 443:255 444:255 445:255 446:255 447:255 448:255 449:255 450:255 451:255 452:255 453:255 454:255 455:255 456:255 457:255 458:255 459:255 460:255 461:255 462:255 463:255 464:255 465:255 466:255 467:255 468:255 469:255 470:255 471:255 472:255 473:255 474:255 475:255 476:255 477:255 478:255 479:255 480:255 481:255 482:255 483:255 484:255 485:255 486:255 487:255 488:255 489:255 490:255 491:255 492:255 493:255 494:255 495:255 496:255 497:255 498:255 499:255 500:255 501:255 502:255 503:255 504:255 505:255 506:255 507:255 508:255 509:255 510:255 511:255 512:255 513:255 514:255 515:255 516:255 517:255 518:255 519:255 520:255 521:255 522:255 523:255 524:255 525:255 526:255 527:255 528:255 529:255 530:255 531:215 532:255 533:255 534:255 535:255 536:255 537:255 538:255 539:255 540:255 541:255 542:255 543:255 544:255 545:255 546:255 547:255 548:255 549:255 550:255 551:255 552:255 553:255 554:255 555:255 556:255 557:255 558:255 559:255 560:61 562:255 563:255 564:255 565:255 566:255 567:255 568:255 569:255 570:255 571:255 572:255 573:255 574:255 575:255 576:255 577:255 578:255 579:255 580:255 581:255 582:255 583:255 584:255 585:255 586:255 587:255 588:255 589:255 592:255 593:255 594:255 595:255 596:255 597:255 598:255 599:255 600:255 601:255 602:255 603:255 604:255 605:255 606:255 607:255 608:255 609:255 610:255 611:255 612:255 613:255 614:255 615:255 616:255 617:255 618:255 619:8 621:59 622:255 623:255 624:255 625:255 626:255 627:255 628:255 629:255 630:255 631:255 632:255 633:255 634:255 635:255 636:255 637:255 638:255 639:255 640:255 641:41 642:25 643:255 644:255 645:255 646:255 647:255 648:255 649:1 651:255 652:255 653:255 654:255 655:255 656:255 657:255 658:255 659:255 660:255 661:255 662:255 663:255 664:255 665:255 666:255 667:255 668:255 669:255 670:255 671:255 672:255 673:255 674:255 675:255 676:255 677:255 678:42 680:26 681:255 682:255 683:255 684:255 685:255 686:255 687:255 688:255 689:255 690:255 691:255 692:255 693:255 694:255 695:255 696:255 697:255 698:255 699:255 700:255 701:255 702:255 703:255 704:255 705:255 706:255 707:255 708:57 709:1 710:255 711:255 712:255 713:255 714:255 715:255 716:255 717:255 718:255 719:255 720:255 721:255 722:255 723:255 724:255 725:255 726:255 727:255 728:255 729:255 730:255 731:255 732:255 733:255 734:255 735:255 736:255 737:255 738:255 739:255 740:255 741:255 742:255 743:255 744:255 745:255 746:255 747:255 748:255 749:255 750:255 751:255 752:255 753:255 754:255 755:255 756:255 757:255 758:255 759:255 760:255 761:255 762:255 763:255 764:255 765:255 766:255 767:255 768:255 769:255 770:255 771:255 772:255 773:255 774:255 775:255 776:255 777:255 778:255 779:255 780:255 781:255 782:255 783:255 784:255 785:255 786:255 787:255 788:255 789:255 790:255 791:255 792:255 793:255 794:255 795:255 796:255 797:255 798:255 799:255 800:255 801:255 802:255 803:255 804:255 805:255 806:255 807:255 808:255 809:255 810:255 811:255 812:255 813:255 814:255 815:255 816:255 817:255 818:255 819:255 820:255 821:255 822:255 823:255 824:255 825:255 826:255 827:255 828:255 829:255 830:255 831:255 832:255 833:255 834:255 835:255 836:255 837:255 838:255 839:255 840:255 841:255 842:255 843:255 844:255 845:255 846:255 847:255 848:255 849:255 850:255 851:255 852:255 853:255 854:255 855:255 856:255 857:255 858:255 859:255 860:255 861:255 862:255 863:255 864:255 865:255 866:255 867:255 868:255 869:255 870:255 871:255 872:255 873:255 874:255 875:255 876:255 877:255 878:255 879:255 880:255 881:255 882:255 883:255 884:255 885:255 886:255 887:255 888:255 889:255 890:255 891:255 892:255 893:255 894:255 895:255 896:255 897:255 898:255 899:255 900:255 
4.247778289474635e-08 1.050781299508899e-08 9.952699893642242e-09 3.458312495428666e-08 4.343287472530138e-08 2.961312417752953e-08 0 9.184103844335866e-09 2.571675010126747e-08 1:255 2:255 3:255 4:255 5:255 6:255 7:255 8:255 9:255 10:255 11:255 12:255 13:255 14:255 15:255 16:255 17:255 18:255 19:255 20:255 21:255 22:255 23:255 24:255 25:255 26:255 27:255 28:255 29:255 30:255 31:255 32:255 33:255 34:255 35:255 36:255 37:255 38:255 39:255 40:255 41:255 42:255 43:255 44:255 45:255 46:255 47:255 48:255 49:255 50:255 51:255 52:255 53:255 54:255 55:255 56:255 57:255 58:255 59:255 60:255 61:255 62:255 63:255 64:255 65:255 66:255 67:255 68:255 69:255 70:255 71:255 72:255 73:255 74:255 75:255 76:255 77:255 78:255 79:255 80:255 81:255 82:255 83:255 84:255 85:255 86:255 87:255 88:255 89:255 90:255 91:255 92:255 93:255 94:255 95:255 96:255 97:255 98:255 99:255 100:255 101:255 102:255 103:255 104:255 105:255 106:255 107:255 108:255 109:255 110:255 111:255 112:255 113:255 114:255 115:255 116:255 117:255 118:255 119:255 120:255 121:255 122:255 123:255 124:255 125:255 126:255 127:255 128:255 129:13 130:255 131:255 132:255 133:255 134:255 135:255 137:9 138:13 140:24 141:255 142:255 143:255 144:255 145:255 146:255 147:255 148:255 149:255 150:255 151:255 152:255 153:255 154:255 155:255 156:255 157:255 158:255 159:255 160:255 161:255 162:255 163:255 164:255 165:255 166:255 167:255 168:13 169:13 170:255 171:255 172:255 173:255 174:255 175:255 176:255 177:255 178:255 179:255 180:255 181:255 182:255 183:255 184:255 185:255 186:255 187:255 188:236 189:137 190:255 191:255 192:255 193:255 194:255 195:255 196:255 197:255 198:255 199:255 200:255 201:255 202:255 203:255 204:255 205:255 206:255 207:255 208:255 209:255 210:255 211:255 212:255 213:255 214:255 215:255 216:255 217:255 218:64 219:64 220:255 221:255 222:255 223:255 224:255 225:255 226:255 227:255 228:255 229:255 230:255 231:255 232:255 233:255 234:255 235:255 236:255 237:255 238:255 239:255 240:255 241:255 242:255 243:255 244:255 245:255 246:255 247:255 248:255 249:255 250:255 251:255 252:255 253:255 254:255 255:255 256:255 257:255 258:255 259:255 260:255 261:255 262:255 263:255 264:255 265:255 266:255 267:255 268:255 269:255 270:255 271:255 272:255 273:255 274:255 275:255 276:255 277:255 278:255 279:255 280:255 281:255 282:255 283:255 284:255 285:255 286:255 287:255 288:255 289:255 290:255 291:255 292:255 293:255 294:255 295:255 296:255 297:255 298:255 299:255 300:255 301:255 302:255 303:255 304:255 305:255 306:255 307:255 308:255 309:255 310:255 311:255 312:255 313:255 314:255 315:255 316:255 317:255 318:255 319:255 320:255 321:255 322:255 323:255 324:255 325:255 326:255 327:255 328:255 329:255 330:255 331:255 332:255 333:255 334:255 335:255 336:255 337:255 338:255 339:255 340:255 341:255 342:255 343:255 344:255 345:255 346:255 347:255 348:255 349:255 350:255 351:255 352:255 353:255 354:255 355:255 356:255 357:255 358:255 359:255 360:255 361:255 362:255 363:255 364:255 365:255 366:255 367:255 368:255 369:255 370:255 371:255 372:255 373:255 374:255 375:255 376:255 377:255 378:255 379:255 380:255 381:255 382:255 383:255 384:255 385:255 386:255 387:255 388:255 389:255 390:255 391:255 392:255 393:255 394:255 395:255 396:255 397:255 398:255 399:255 400:255 401:255 402:255 403:255 404:255 405:255 406:255 407:255 408:255 409:248 410:255 411:255 412:255 413:146 415:204 416:255 417:255 418:255 419:255 420:255 421:255 422:255 423:255 424:255 425:255 426:255 427:255 428:255 429:255 430:255 431:255 432:255 433:255 434:255 435:255 436:255 437:255 438:42 440:255 441:255 442:255 443:127 445:186 446:255 447:255 448:255 449:255 450:255 451:255 452:255 453:255 454:255 455:255 456:255 457:255 458:255 459:255 460:255 461:255 462:255 463:255 464:170 468:53 469:247 470:255 471:255 472:255 473:127 474:13 475:255 476:255 477:255 478:255 479:255 480:255 481:255 482:255 483:255 484:255 485:255 486:226 487:255 488:236 489:255 490:255 491:255 492:255 493:255 494:27 498:219 499:255 500:255 501:255 502:255 503:255 504:255 505:255 506:255 507:255 508:255 509:255 510:255 511:255 512:255 513:255 514:255 515:255 519:121 520:255 521:255 522:255 523:255 524:255 525:64 527:45 528:255 529:255 530:255 531:255 532:255 533:255 534:255 535:255 536:255 537:255 538:255 539:255 540:255 541:255 542:255 543:255 544:255 545:255 546:68 550:255 551:255 552:255 553:255 554:255 555:255 556:255 557:255 558:255 559:255 560:255 561:255 562:255 563:255 564:255 565:255 566:255 567:255 568:255 569:255 570:255 571:255 572:255 573:255 574:255 575:255 576:222 580:195 581:255 582:255 583:255 584:255 585:255 586:255 587:255 588:255 589:255 590:255 591:255 592:255 593:255 594:255 595:255 596:255 597:255 598:255 599:255 600:255 601:255 602:255 603:255 604:255 605:255 606:228 610:228 611:255 612:255 613:255 614:255 615:255 616:255 617:255 618:255 619:255 620:255 621:255 622:255 623:255 624:255 625:255 626:255 627:255 628:255 629:255 630:255 631:255 632:255 633:255 634:255 635:255 636:255 637:222 638:166 639:255 640:255 641:255 642:255 643:255 644:255 645:255 646:255 647:255 648:255 649:255 650:255 651:255 652:255 653:172 654:89 655:255 656:255 657:255 658:255 659:255 660:255 661:255 662:255 663:255 664:255 665:255 666:255 667:255 668:255 669:255 670:255 671:255 672:255 673:255 674:255 675:255 676:255 677:255 678:255 679:255 680:255 681:255 682:255 685:49 686:255 687:255 688:255 689:255 690:255 691:255 692:255 693:255 694:255 695:255 696:255 697:255 698:255 699:255 700:255 701:255 702:255 703:255 704:255 705:255 706:255 707:255 708:255 709:255 710:255 711:255 712:255 713:236 716:229 717:255 718:255 719:255 720:255 721:255 722:255 723:255 724:255 725:255 726:255 727:255 728:255 729:255 730:255 731:255 732:255 733:255 734:255 735:255 736:255 737:255 738:255 739:255 740:255 741:255 742:255 743:255 744:247 746:254 747:255 748:255 749:255 750:255 751:255 752:255 753:255 754:255 755:255 756:255 757:255 758:255 759:255 760:255 761:255 762:255 763:255 764:255 765:255 766:255 767:255 768:255 769:255 770:255 771:255 772:255 773:255 774:255 775:255 776:255 777:255 778:255 779:255 780:255 781:255 782:255 783:255 784:255 785:255 786:255 787:255 788:255 789:255 790:255 791:255 792:255 793:255 794:255 795:255 796:255 797:255 798:255 799:255 800:255 801:255 802:255 803:255 804:255 805:255 806:255 807:255 808:255 809:255 810:255 811:255 812:255 813:255 814:255 815:255 816:255 817:255 818:255 819:255 820:255 821:255 822:255 823:255 824:255 825:255 826:255 827:255 828:255 829:255 830:255 831:255 832:255 833:255 834:255 835:255 836:255 837:255 838:255 839:255 840:255 841:255 842:255 843:255 844:255 845:255 846:255 847:255 848:255 849:255 850:255 851:255 852:255 853:255 854:255 855:255 856:255 857:255 858:255 859:255 860:255 861:255 862:255 863:255 864:255 865:255 866:255 867:255 868:255 869:255 870:255 871:255 872:255 873:255 874:255 875:255 876:255 877:255 878:255 879:255 880:255 881:255 882:255 883:255 884:255 885:255 886:255 887:255 888:255 889:255 890:255 891:255 892:255 893:255 894:255 895:255 896:255 897:255 898:255 899:255 900:255 
0 0 0 0 0 2.146350434857545e-08 0 0 0 1:255 2:255 3:255 4:255 5:255 6:255 7:255 8:255 9:255 10:255 11:255 12:255 13:255 14:255 15:255 16:255 17:255 18:255 19:255 20:255 21:255 22:255 23:255 24:255 25:255 26:255 27:255 28:255 29:255 30:255 31:255 32:255 33:255 34:255 35:255 36:255 37:255 38:255 39:255 40:255 41:255 42:255 43:255 44:255 45:255 46:255 47:255 48:255 49:255 50:255 51:255 52:255 53:255 54:255 55:255 56:255 57:255 58:255 59:255 60:255 61:255 62:255 63:255 64:255 65:255 66:255 67:255 68:255 69:255 70:255 71:255 72:255 73:255 74:255 75:255 76:255 77:255 78:255 79:255 80:255 81:255 82:255 83:255 84:255 85:255 86:255 87:255 88:255 89:255 90:255 91:255 92:255 93:255 94:255 95:255 96:255 97:255 98:255 99:255 100:255 101:255 102:255 103:255 104:255 105:255 106:255 107:255 108:255 109:255 110:255 111:255 112:255 113:255 114:255 115:255 116:255 117:255 118:255 119:255 120:255 121:255 122:255 123:255 124:255 125:255 126:255 127:255 128:255 129:255 130:255 131:255 132:255 133:255 134:255 135:255 136:255 137:255 138:255 139:255 140:255 141:255 142:255 143:255 144:255 145:255 146:255 147:255 148:255 149:255 150:255 151:255 152:255 153:255 154:255 155:255 156:255 157:255 158:255 159:255 160:255 161:255 162:255 163:255 164:255 165:255 166:255 167:255 168:255 169:255 170:255 171:255 172:255 173:255 174:255 175:255 176:255 177:255 178:255 179:255 180:255 181:255 182:255 183:255 184:255 185:255 186:255 187:255 188:255 189:255 190:255 191:255 192:255 193:255 194:255 195:255 196:255 197:255 198:255 199:255 200:255 201:255 202:255 203:255 204:255 205:255 206:255 207:255 208:255 209:255 210:255 211:255 212:255 213:255 214:255 215:255 216:255 217:255 218:255 219:255 220:255 221:255 222:255 223:255 224:255 225:255 226:255 227:255 228:255 229:255 230:255 231:255 232:255 233:255 234:255 235:255 236:255 237:255 238:255 239:255 240:255 241:255 242:255 243:255 244:255 245:255 246:255 247:255 248:255 249:255 250:255 251:255 252:255 253:255 254:255 255:255 256:255 257:255 258:255 259:255 260:255 261:255 262:255 263:255 264:255 265:255 266:255 267:255 268:255 269:255 270:255 271:255 272:255 273:255 274:255 275:255 276:255 277:255 278:255 279:255 280:255 281:255 282:255 283:255 284:255 285:255 286:255 287:255 288:255 289:255 290:255 291:255 292:255 293:255 294:255 295:255 296:255 297:255 298:255 299:255 300:255 301:255 302:255 303:255 304:255 305:255 306:255 307:255 308:255 309:255 310:255 311:255 312:255 313:255 314:255 315:255 316:255 317:255 318:255 319:255 320:255 321:255 322:255 323:255 324:255 325:255 326:255 327:255 328:255 329:255 330:255 331:255 332:255 333:255 334:255 335:255 336:255 337:255 338:255 339:255 340:255 341:255 342:255 343:255 344:255 345:255 346:255 347:255 348:255 349:255 350:255 351:255 352:255 353:255 354:255 355:255 356:255 357:255 358:255 359:255 360:255 361:255 362:255 363:255 364:255 365:255 366:255 367:255 368:255 369:255 370:255 371:255 372:255 373:255 374:255 375:255 376:255 377:255 378:255 379:255 380:255 381:255 382:255 383:255 384:255 385:255 386:255 387:255 388:255 389:255 390:255 391:255 392:255 393:255 394:255 395:255 396:255 397:255 398:255 399:255 400:255 401:255 402:255 403:255 404:201 405:255 406:255 407:255 408:255 409:255 410:255 411:255 412:255 413:255 414:255 415:255 416:255 417:255 418:255 419:255 420:255 421:255 422:255 423:255 424:255 425:255 426:255 427:255 428:255 429:255 430:255 431:255 432:255 433:237 434:255 435:255 436:255 437:255 438:255 439:255 440:255 441:255 442:255 443:255 444:255 445:255 446:255 447:255 448:255 449:255 450:255 451:255 452:255 453:255 454:255 455:255 456:255 457:255 458:255 459:255 460:255 461:255 462:255 463:255 464:154 465:255 466:173 467:110 469:250 470:255 471:255 472:255 473:255 474:255 475:255 476:255 477:255 478:255 479:255 480:255 481:255 482:255 483:255 484:255 485:255 486:255 487:255 488:255 489:255 490:255 491:255 492:255 493:225 495:76 497:125 499:252 500:255 501:255 502:255 503:255 504:255 505:255 506:255 507:255 508:255 509:255 510:255 511:255 512:255 513:255 514:255 515:255 516:255 517:255 518:255 519:255 520:255 521:255 522:255 523:255 527:106 528:219 529:49 530:255 531:255 532:255 533:255 534:255 535:255 536:255 537:255 538:255 539:255 540:255 541:255 542:255 543:255 544:255 545:255 546:255 547:255 548:255 549:255 550:255 551:255 552:255 553:255 554:178 558:7 560:255 561:255 562:255 563:8 564:255 565:255 566:255 567:255 568:255 569:255 570:255 571:255 572:255 573:255 574:255 575:255 576:255 577:255 578:255 579:255 580:255 581:255 582:255 583:255 584:255 585:156 589:222 590:26 591:176 595:249 596:255 597:255 598:255 599:255 600:255 601:255 602:255 603:255 604:255 605:255 606:255 607:255 608:255 609:255 610:255 611:255 612:255 613:255 614:255 615:255 616:255 617:60 619:60 620:255 621:255 622:38 625:150 626:255 627:255 628:255 629:255 630:255 631:255 632:255 633:255 634:255 635:255 636:255 637:255 638:255 639:255 640:255 641:255 642:255 643:255 644:255 645:255 646:255 647:255 648:255 649:255 650:255 651:255 652:255 653:47 656:229 657:255 658:255 659:255 660:255 661:255 662:255 663:255 664:255 665:255 666:255 667:255 668:255 669:255 670:255 671:255 672:255 673:255 674:255 675:255 676:255 677:255 678:255 679:255 680:255 681:255 682:255 683:255 684:255 685:157 686:242 687:255 688:255 689:255 690:255 691:255 692:255 693:255 694:255 695:255 696:255 697:255 698:255 699:255 700:255 701:255 702:255 703:255 704:255 705:255 706:255 707:255 708:255 709:255 710:255 711:255 712:255 713:255 714:255 715:255 716:255 717:255 718:255 719:255 720:255 721:255 722:255 723:255 724:255 725:255 726:255 727:255 728:255 729:255 730:255 731:255 732:255 733:255 734:255 735:255 736:255 737:255 738:255 739:255 740:255 741:255 742:255 743:255 744:255 745:255 746:255 747:255 748:255 749:255 750:255 751:255 752:255 753:255 754:255 755:255 756:255 757:255 758:255 759:255 760:255 761:255 762:255 763:255 764:255 765:255 766:255 767:255 768:255 769:255 770:255 771:255 772:255 773:255 774:255 775:255 776:255 777:255 778:255 779:255 780:255 781:255 782:255 783:255 784:255 785:255 786:255 787:255 788:255 789:255 790:255 791:255 792:255 793:255 794:255 795:255 796:255 797:255 798:255 799:255 800:255 801:255 802:255 803:255 804:255 805:255 806:255 807:255 808:255 809:255 810:255 811:255 812:255 813:255 814:255 815:255 816:255 817:255 818:255 819:255 820:255 821:255 822:255 823:255 824:255 825:255 826:255 827:255 828:255 829:255 830:255 831:255 832:255 833:255 834:255 835:255 836:255 837:255 838:255 839:255 840:255 841:255 842:255 843:255 844:255 845:255 846:255 847:255 848:255 849:255 850:255 851:255 852:255 853:255 854:255 855:255 856:255 857:255 858:255 859:255 860:255 861:255 862:255 863:255 864:255 865:255 866:255 867:255 868:255 869:255 870:255 871:255 872:255 873:255 874:255 875:255 876:255 877:255 878:255 879:255 880:255 881:255 882:255 883:255 884:255 885:255 886:255 887:255 888:255 889:255 890:255 891:255 892:255 893:255 894:255 895:255 896:255 897:255 898:255 899:255 900:255 
0 1.688766303227258e-07 0 4.803031888997833e-08 0 9.202647686940372e-10 0 2.569983984798197e-09 3.183304816011739e-08 1:255 2:255 3:255 4:255 5:255 6:255 7:255 8:255 9:255 10:255 11:255 12:255 13:255 14:255 15:255 16:255 17:255 18:255 19:255 20:255 21:255 22:255 23:255 24:255 25:255 26:255 27:255 28:255 29:255 30:255 31:255 32:255 33:255 34:255 35:255 36:255 37:255 38:255 39:255 40:255 41:255 42:255 43:255 44:255 45:255 46:255 47:255 48:255 49:255 50:255 51:255 52:255 53:255 54:255 55:255 56:255 57:255 58:255 59:255 60:255 61:255 62:255 63:255 64:255 65:255 66:255 67:255 68:255 69:255 70:255 71:255 72:255 73:255 74:255 75:255 76:255 77:255 78:255 79:255 80:255 81:255 82:255 83:255 84:255 85:255 86:255 87:255 88:255 89:255 90:255 91:255 92:255 93:255 94:255 95:255 96:255 97:255 98:255 99:255 100:255 101:255 102:255 103:255 104:255 105:255 106:255 107:255 108:255 109:255 110:255 111:255 112:255 113:255 114:255 115:255 116:255 117:255 118:255 119:255 120:255 121:255 122:255 123:255 124:255 125:255 126:255 127:255 128:255 129:255 130:255 131:255 132:255 133:21 134:161 135:125 136:255 137:255 138:255 139:255 140:255 141:255 142:255 143:255 144:255 145:255 146:255 147:255 148:255 149:255 150:255 151:255 152:255 153:255 154:255 155:255 156:255 157:255 158:255 159:255 160:255 161:255 162:255 163:255 164:255 165:255 166:255 167:255 168:255 169:255 170:255 171:255 172:255 173:255 174:255 175:255 176:255 177:255 178:255 179:255 180:255 181:255 182:255 183:255 184:255 185:255 186:255 187:255 188:255 189:255 190:255 191:255 192:255 193:255 194:255 195:255 196:202 197:161 198:255 199:255 200:255 201:255 202:255 203:255 204:255 205:255 206:255 207:255 208:255 209:255 210:255 211:255 212:255 213:255 214:255 215:255 216:255 217:255 218:255 219:255 220:255 221:128 222:255 223:255 224:255 225:255 226:110 228:106 229:251 230:255 231:255 232:255 233:255 234:255 235:255 236:255 237:255 238:255 239:255 240:255 241:255 242:255 243:255 244:255 245:255 246:255 247:255 248:255 249:255 252:255 253:255 254:255 255:255 256:255 260:110 261:255 262:255 263:255 264:255 265:255 266:255 267:255 268:255 269:255 270:255 271:255 272:255 273:255 274:255 275:255 276:255 277:255 278:255 279:217 281:249 282:255 283:255 284:255 285:255 286:255 287:213 291:60 292:255 293:255 294:255 295:255 296:255 297:255 298:255 299:255 300:255 301:255 302:255 303:255 304:255 305:255 306:255 307:255 308:255 309:255 310:255 311:255 312:255 313:255 314:255 315:255 316:255 317:255 318:42 323:140 324:255 325:255 326:255 327:255 328:255 329:255 330:255 331:255 332:255 333:255 334:255 335:255 336:255 337:255 338:255 339:255 340:255 341:255 342:255 343:255 344:255 345:255 346:255 347:255 348:255 349:255 353:8 354:255 355:255 356:255 357:255 358:255 359:255 360:255 361:255 362:255 363:255 364:255 365:255 366:255 367:255 368:255 369:255 370:255 371:255 372:255 373:255 374:255 375:255 376:255 377:255 378:255 379:255 380:255 381:255 382:255 383:255 384:255 385:255 386:255 387:255 388:255 389:255 390:255 391:255 392:255 393:255 394:255 395:255 396:255 397:255 398:255 399:255 400:255 401:255 402:255 403:255 404:255 405:255 406:255 407:255 408:255 409:255 410:255 411:255 412:255 413:255 414:255 415:255 416:255 417:255 418:255 419:255 420:255 421:255 422:255 423:255 424:255 425:255 426:255 427:255 428:255 429:255 430:255 431:255 432:255 433:255 434:255 435:255 436:255 437:255 438:255 439:255 440:255 441:255 442:255 443:255 444:255 445:255 446:255 447:255 448:255 449:255 450:255 451:255 452:255 453:255 454:255 455:255 456:255 457:255 458:255 459:255 460:255 461:255 462:255 463:255 464:255 465:255 466:255 467:255 468:255 469:255 470:255 471:255 472:255 473:255 474:255 475:255 476:255 477:255 478:255 479:255 480:255 481:255 482:255 483:255 484:255 485:255 486:255 487:255 488:255 489:255 490:255 491:255 492:255 493:255 494:255 495:255 496:255 497:255 498:255 499:255 500:255 501:255 502:255 503:255 504:255 505:255 506:255 507:255 508:255 509:255 510:255 511:255 512:255 513:255 514:255 515:255 516:255 517:255 518:255 519:255 520:255 521:255 522:255 523:255 524:255 525:255 526:255 527:255 528:255 529:255 530:255 531:255 532:255 533:255 534:255 535:255 536:255 537:255 538:255 539:255 540:255 541:255 542:255 543:255 544:255 545:255 546:255 547:255 548:255 549:255 550:255 551:255 552:255 553:255 554:255 555:255 556:255 557:255 558:255 559:255 560:255 561:255 562:255 563:255 564:255 565:255 566:255 567:255 568:255 569:255 570:255 571:255 572:255 573:255 574:255 575:255 576:255 577:255 578:255 579:255 580:255 581:255 582:255 583:255 584:255 585:255 586:255 587:255 588:255 589:255 590:255 591:255 592:255 593:255 594:255 595:255 596:255 597:255 598:255 599:255 600:255 601:255 602:255 603:255 604:255 605:255 606:255 607:255 608:255 609:255 610:255 611:255 612:255 613:255 614:255 615:255 616:255 617:255 618:255 619:255 620:255 621:255 622:255 623:255 624:255 625:255 626:255 627:255 628:255 629:255 630:255 631:255 632:255 633:255 634:255 635:255 636:255 637:255 638:255 639:255 640:255 641:255 642:255 643:255 644:255 645:255 646:255 647:255 648:255 649:255 650:255 651:255 652:255 653:255 654:255 655:255 656:255 657:255 658:255 659:255 660:255 661:255 662:255 663:255 664:255 665:255 666:255 667:255 668:255 669:255 670:255 671:255 672:255 673:255 674:255 675:255 676:255 677:255 678:255 679:255 680:255 681:255 682:255 683:255 684:255 685:255 686:255 687:255 688:255 689:255 690:255 691:255 692:255 693:255 694:255 695:255 696:255 697:255 698:255 699:255 700:255 701:255 702:255 703:255 704:255 705:255 706:255 707:255 708:255 709:255 710:255 711:255 712:255 713:255 714:255 715:255 716:255 717:255 718:255 719:255 720:255 721:255 722:255 723:255 724:255 725:255 726:255 727:255 728:255 729:255 730:255 731:255 732:255 733:255 734:255 735:255 736:255 737:255 738:255 739:255 740:255 741:255 742:255 743:255 744:255 745:255 746:255 747:255 748:255 749:255 750:255 751:255 752:255 753:255 754:255 755:255 756:255 757:255 758:255 759:255 760:255 761:255 762:255 763:255 764:255 765:255 766:255 767:255 768:255 769:255 770:255 771:255 772:255 773:255 774:255 775:255 776:255 777:255 778:255 779:255 780:255 781:255 782:255 783:255 784:255 785:255 786:255 787:255 788:255 789:255 790:255 791:255 792:255 793:255 794:255 795:255 796:255 797:255 798:255 799:255 800:255 801:255 802:255 803:255 804:255 805:255 806:255 807:255 808:255 809:255 810:255 811:255 812:255 813:255 814:255 815:255 816:255 817:255 818:255 819:255 820:255 821:255 822:255 823:255 824:255 825:255 826:255 827:255 828:255 829:255 830:255 831:255 832:255 833:255 834:255 835:255 836:255 837:255 838:255 839:255 840:255 841:255 842:255 843:255 844:255 845:255 846:255 847:255 848:255 849:255 850:255 851:255 852:255 853:255 854:255 855:255 856:255 857:255 858:255 859:255 860:255 861:255 862:255 863:255 864:255 865:255 866:255 867:255 868:255 869:255 870:255 871:255 872:255 873:255 874:255 875:255 876:255 877:255 878:255 879:255 880:255 881:255 882:255 883:255 884:255 885:255 886:255 887:255 888:255 889:255 890:255 891:255 892:255 893:255 894:255 895:255 896:255 897:255 898:255 899:255 900:255 
0 5.08184609178481e-08 0 0 0 0 0 0 2.37329349352569e-08 1:255 2:255 3:255 4:255 5:255 6:255 7:255 8:255 9:255 10:255 11:255 12:255 13:255 14:255 15:255 16:255 17:255 18:255 19:255 20:255 21:255 22:255 23:255 24:255 25:255 26:255 27:255 28:255 29:255 30:255 31:255 32:255 33:255 34:255 35:255 36:255 37:255 38:255 39:255 40:255 41:255 42:255 43:255 44:255 45:255 46:255 47:255 48:255 49:255 50:255 51:255 52:255 53:255 54:255 55:255 56:255 57:255 58:255 59:255 60:255 61:255 62:255 63:255 64:255 65:255 66:255 67:255 68:255 69:255 70:255 71:255 72:255 73:255 74:255 75:255 76:255 77:255 78:255 79:255 80:255 81:255 82:255 83:255 84:255 85:255 86:255 87:255 88:255 89:255 90:255 91:255 92:255 93:255 94:255 95:255 96:255 97:255 98:255 99:255 100:255 101:255 102:255 103:255 104:255 105:255 106:255 107:255 108:255 109:255 110:255 111:255 112:255 113:255 114:255 115:255 116:255 117:255 118:255 119:255 120:255 121:255 122:255 123:255 124:255 125:255 126:255 127:255 128:255 129:255 130:255 131:255 132:255 133:255 134:255 135:255 136:255 137:255 138:255 139:255 140:255 141:255 142:255 143:255 144:255 145:255 146:255 147:255 148:255 149:255 150:255 151:255 152:255 153:255 154:255 155:255 156:255 157:255 158:255 159:255 160:255 161:255 162:255 163:255 164:255 165:255 166:255 167:255 168:255 169:255 170:255 171:255 172:255 173:255 174:255 175:255 176:255 177:255 178:255 179:255 180:255 181:255 182:255 183:255 184:255 185:255 186:255 187:255 188:255 189:255 190:255 191:255 192:255 193:255 194:255 195:255 196:255 197:255 198:255 199:255 200:255 201:255 202:255 203:255 204:255 205:255 206:255 207:255 208:255 209:255 210:255 211:255 212:255 213:255 214:255 215:255 216:255 217:255 218:255 219:255 220:255 221:255 222:255 223:255 224:255 225:255 226:255 227:255 228:255 229:255 230:255 231:255 232:255 233:255 234:255 235:255 236:255 237:255 238:255 239:255 240:255 241:255 242:255 243:255 244:255 245:255 246:255 247:255 248:255 249:255 250:255 251:255 252:255 253:255 254:255 255:255 256:255 257:255 258:255 259:255 260:255 261:255 262:255 263:255 264:255 265:255 266:255 267:255 268:255 269:255 270:255 271:255 272:255 273:255 274:255 275:255 276:255 277:255 278:255 279:255 280:255 281:255 282:255 283:255 284:255 285:255 286:255 287:255 288:255 289:255 290:255 291:255 292:255 293:255 294:255 295:255 296:255 297:255 298:255 299:255 300:255 301:255 302:255 303:255 304:255 305:255 306:255 307:255 308:255 309:255 310:255 311:255 312:255 313:255 314:255 315:255 316:255 317:255 318:255 319:255 320:255 321:255 322:255 323:255 324:255 325:255 326:255 327:255 328:255 329:255 330:255 331:255 332:255 333:255 334:255 335:255 336:255 337:255 338:255 339:255 340:255 341:255 342:255 343:255 344:255 345:255 346:255 347:255 348:255 349:255 350:255 351:255 352:255 353:255 354:255 355:255 356:255 357:255 358:255 359:255 360:255 361:255 362:255 363:255 364:255 365:255 366:255 367:255 368:255 369:255 370:255 371:255 372:255 373:255 374:255 375:255 376:255 377:255 378:255 379:255 380:255 381:255 382:255 383:255 384:255 385:255 386:255 387:255 388:255 389:255 390:255 391:255 392:255 393:255 394:255 395:255 396:255 397:255 398:255 399:255 400:255 401:255 402:255 403:255 404:36 406:144 407:255 408:255 409:255 410:255 411:255 412:255 413:255 414:255 415:255 416:255 417:255 418:255 419:255 420:255 421:255 422:255 423:255 424:255 425:255 426:255 427:255 428:255 429:255 430:255 431:255 432:255 433:255 434:209 435:102 436:255 437:255 438:255 439:255 440:255 441:255 442:255 443:255 444:255 445:255 446:255 447:255 448:255 449:255 450:255 451:255 452:255 453:255 454:255 455:255 456:255 457:255 458:255 459:255 460:255 461:239 462:255 463:255 464:255 465:255 466:255 467:255 468:255 469:255 470:255 471:255 472:255 473:255 474:255 475:255 476:255 477:255 478:255 479:255 480:255 481:255 482:255 483:255 484:255 485:255 486:255 487:255 488:255 489:255 490:255 491:229 492:255 493:255 494:255 495:255 496:255 497:255 498:255 499:255 500:255 501:255 502:255 503:255 504:255 505:255 506:255 507:255 508:255 509:255 510:255 511:255 512:255 513:255 514:255 515:255 516:255 517:255 518:255 519:255 520:255 521:255 522:255 523:255 524:255 525:255 526:255 527:255 528:255 529:255 530:255 531:255 532:255 533:255 534:255 535:255 536:255 537:255 538:255 539:255 540:255 541:255 542:255 543:255 544:255 545:255 546:255 547:255 548:255 549:255 550:255 551:255 552:255 553:255 554:255 555:255 556:255 557:255 558:255 559:255 560:255 561:255 562:255 563:255 564:255 565:255 566:255 567:255 568:255 569:255 570:255 571:255 572:255 573:255 574:255 575:255 576:255 577:255 578:255 579:255 580:255 581:255 582:255 583:255 584:255 585:255 586:255 587:255 588:255 589:255 590:255 591:255 592:255 593:255 594:255 595:255 596:255 597:255 598:255 599:255 600:255 601:255 602:255 603:255 604:255 605:255 606:255 607:255 608:255 609:255 610:255 611:255 612:255 613:255 614:255 615:255 616:255 617:255 618:255 619:255 620:255 621:255 622:255 623:255 624:255 625:255 626:255 627:255 628:255 629:255 630:255 631:255 632:255 633:255 634:255 635:255 636:255 637:255 638:255 639:255 640:255 641:255 642:255 643:255 644:255 645:255 646:255 647:255 648:255 649:255 650:255 651:255 652:255 653:255 654:255 655:255 656:255 657:255 658:255 659:255 660:255 661:255 662:255 663:255 664:255 665:255 666:255 667:255 668:255 669:255 670:255 671:255 672:255 673:255 674:255 675:255 676:255 677:255 678:255 679:255 680:255 681:255 682:255 683:255 684:255 685:255 686:255 687:255 688:255 689:255 690:255 691:255 692:255 693:255 694:255 695:255 696:255 697:255 698:255 699:255 700:255 701:255 702:255 703:255 704:255 705:255 706:255 707:255 708:255 709:255 710:255 711:255 712:255 713:255 714:255 715:255 716:255 717:255 718:255 719:255 720:255 721:255 722:255 723:255 724:255 725:255 726:255 727:255 728:255 729:255 730:255 731:255 732:255 733:255 734:255 735:255 736:255 737:255 738:255 739:255 740:255 741:255 742:255 743:255 744:255 745:255 746:255 747:255 748:255 749:255 750:255 751:255 752:255 753:255 754:255 755:255 756:255 757:255 758:255 759:255 760:255 761:255 762:255 763:255 764:255 765:255 766:255 767:255 768:255 769:255 770:255 771:255 772:255 773:255 774:255 775:255 776:255 777:255 778:255 779:255 780:255 781:255 782:255 783:255 784:255 785:255 786:255 787:255 788:255 789:255 790:255 791:255 792:255 793:255 794:255 795:255 796:255 797:255 798:255 799:255 800:255 801:255 802:255 803:255 804:255 805:255 806:255 807:255 808:255 809:255 810:255 811:255 812:255 813:255 814:255 815:255 816:255 817:255 818:255 819:255 820:255 821:255 822:255 823:255 824:255 825:255 826:255 827:255 828:255 829:255 830:255 831:255 832:255 833:255 834:255 835:255 836:255 837:255 838:255 839:255 840:255 841:255 842:255 843:255 844:255 845:255 846:255 847:255 848:255 849:255 850:255 851:255 852:255 853:255 854:255 855:255 856:255 857:255 858:255 859:255 860:255 861:255 862:255 863:255 864:255 865:255 866:255 867:255 868:255 869:255 870:255 871:255 872:255 873:255 874:255 875:255 876:231 887:107 888:153 889:153 890:138 895:117 896:153 897:156 898:255 899:255 900:255 
0 2.075697642460862e-07 6.063768058755918e-09 0 0 0 1.62306053339057e-08 0 0 1:255 2:255 3:255 4:255 5:255 6:255 7:255 8:255 9:255 10:255 11:255 12:255 13:255 14:255 15:255 16:255 17:255 18:255 19:255 20:255 21:255 22:255 23:255 24:255 25:255 26:255 27:255 28:255 29:255 30:255 31:255 32:255 33:255 34:255 35:255 36:255 37:255 38:255 39:255 40:255 41:255 42:255 43:255 44:255 45:255 46:255 47:255 48:255 49:255 50:255 51:255 52:255 53:255 54:255 55:255 56:255 57:255 58:255 59:255 60:255 61:255 62:255 63:255 64:255 65:255 66:255 67:255 68:255 69:255 70:255 71:255 72:255 73:255 74:255 75:255 76:255 77:255 78:255 79:255 80:255 81:255 82:255 83:255 84:255 85:255 86:255 87:255 88:255 89:255 90:255 91:255 92:255 93:255 94:255 95:255 96:255 97:255 98:255 99:255 100:255 101:255 102:255 103:255 104:255 105:255 106:255 107:255 108:255 109:255 110:255 111:255 112:255 113:255 114:255 115:255 116:255 117:255 118:255 119:255 120:255 121:255 122:255 123:255 124:255 125:255 126:255 127:255 128:255 129:255 130:255 131:255 132:255 133:255 134:255 135:255 136:255 137:255 138:255 139:255 140:255 141:255 142:255 143:255 144:244 145:12 146:255 147:255 148:255 149:255 150:255 151:255 152:255 153:255 154:255 155:255 156:255 157:255 158:255 159:255 160:255 161:255 162:255 163:255 164:242 168:245 169:255 170:255 171:255 172:255 173:255 174:255 175:1 177:244 178:255 179:255 180:255 181:255 182:255 183:255 184:255 185:255 186:255 187:255 188:255 189:255 190:255 191:255 192:255 199:230 200:255 201:255 202:255 203:255 204:255 205:49 208:255 209:255 210:255 211:255 212:255 213:255 214:255 215:255 216:255 217:255 218:255 219:255 220:255 221:255 222:255 229:89 230:255 231:255 232:255 233:255 234:255 235:255 238:255 239:255 240:255 241:255 242:255 243:255 244:255 245:255 246:255 247:255 248:255 249:255 250:255 251:255 252:255 253:214 254:76 255:89 256:255 257:217 259:58 260:255 261:255 262:255 263:255 264:255 265:255 266:85 267:38 268:255 269:255 270:255 271:255 272:255 273:255 274:255 275:255 276:255 277:255 278:255 279:255 280:255 281:255 282:255 283:255 284:255 285:255 286:255 287:255 288:115 289:40 290:255 291:255 292:255 293:255 294:255 295:255 296:255 297:255 298:255 299:255 300:255 301:255 302:255 303:255 304:255 305:255 306:255 307:255 308:255 309:255 310:255 311:255 312:255 313:255 314:255 315:255 316:255 317:255 318:255 319:255 320:255 321:255 322:255 323:255 324:255 325:255 326:255 327:255 328:255 329:255 330:255 331:255 332:255 333:255 334:255 335:255 336:255 337:255 338:255 339:255 340:255 341:255 342:255 343:255 344:255 345:255 346:255 347:255 348:255 349:255 350:255 351:255 352:255 353:255 354:255 355:255 356:255 357:255 358:255 359:255 360:255 361:255 362:255 363:255 364:255 365:255 366:255 367:255 368:255 369:255 370:255 371:255 372:255 373:255 374:255 375:255 376:255 377:255 378:255 379:255 380:255 381:255 382:255 383:255 384:255 385:255 386:255 387:255 388:255 389:255 390:255 391:255 392:255 393:255 394:255 395:255 396:255 397:255 398:255 399:255 400:255 401:255 402:255 403:255 404:255 405:255 406:255 407:255 408:255 409:255 410:255 411:255 412:255 413:255 414:255 415:255 416:255 417:255 418:255 419:255 420:255 421:255 422:255 423:255 424:255 425:255 426:255 427:255 428:255 429:255 430:255 431:255 432:255 433:255 434:255 435:255 436:255 437:255 438:255 439:255 440:255 441:255 442:255 443:255 444:255 445:255 446:255 447:255 448:255 449:255 450:255 451:255 452:255 453:255 454:255 455:255 456:255 457:255 458:255 459:255 460:255 461:255 462:255 463:255 464:255 465:255 466:255 467:255 468:255 469:255 470:255 471:255 472:255 473:255 474:255 475:255 476:255 477:255 478:255 479:255 480:255 481:255 482:255 483:255 484:255 485:255 486:255 487:255 488:255 489:255 490:255 491:255 492:255 493:255 494:255 495:255 496:255 497:255 498:245 499:230 500:255 501:255 502:255 503:255 504:255 505:255 506:255 507:255 508:255 509:255 510:255 511:255 512:255 513:255 514:255 515:255 516:255 517:255 518:255 519:255 520:255 521:255 522:255 523:255 524:255 525:255 526:255 527:255 528:207 529:64 530:255 531:255 532:255 533:255 534:255 535:255 536:255 537:255 538:255 539:255 540:255 541:255 542:255 543:255 544:255 545:255 546:255 547:255 548:255 549:255 550:255 551:255 552:255 553:255 554:255 555:255 556:255 557:255 558:255 559:255 560:255 561:255 562:255 563:255 564:255 565:255 566:255 567:255 568:255 569:255 570:255 571:255 572:255 573:255 574:255 575:255 576:255 577:255 578:255 579:255 580:255 581:255 582:255 583:255 584:255 585:255 586:255 587:255 588:255 589:255 590:255 591:255 592:255 593:255 594:255 595:255 596:255 597:255 598:255 599:255 600:255 601:255 602:255 603:255 604:255 605:255 606:255 607:255 608:255 609:255 610:255 611:255 612:255 613:255 614:255 615:255 616:255 617:255 618:255 619:255 620:255 621:255 622:255 623:255 624:255 625:255 626:255 627:255 628:255 629:255 630:255 631:255 632:255 633:255 634:255 635:255 636:255 637:255 638:255 639:255 640:255 641:255 642:255 643:255 644:255 645:255 646:255 647:255 648:255 649:255 650:255 651:255 652:255 653:255 654:255 655:255 656:255 657:255 658:255 659:255 660:255 661:255 662:255 663:255 664:255 665:255 666:255 667:255 668:255 669:255 670:255 671:255 672:255 673:255 674:255 675:255 676:255 677:255 678:255 679:255 680:255 681:255 682:255 683:255 684:255 685:255 686:255 687:255 688:255 689:255 690:255 691:255 692:255 693:255 694:255 695:255 696:255 697:255 698:255 699:255 700:255 701:255 702:255 703:255 704:255 705:255 706:255 707:255 708:255 709:255 710:255 711:255 712:255 713:255 714:255 715:255 716:255 717:255 718:255 719:255 720:255 721:255 722:255 723:255 724:255 725:255 726:255 727:255 728:255 729:255 730:255 731:255 732:255 733:255 734:255 735:255 736:255 737:255 738:255 739:255 740:255 741:255 742:255 743:255 744:255 745:255 746:255 747:255 748:255 749:255 750:255 751:255 752:255 753:255 754:255 755:255 756:255 757:255 758:255 759:255 760:255 761:255 762:255 763:255 764:255 765:255 766:255 767:255 768:255 769:255 770:255 771:255 772:255 773:255 774:255 775:255 776:255 777:255 778:255 779:255 780:255 781:255 782:255 783:255 784:255 785:255 786:255 787:255 788:255 789:255 790:255 791:255 792:255 793:255 794:255 795:255 796:255 797:255 798:255 799:255 800:255 801:255 802:255 803:255 804:255 805:255 806:255 807:255 808:255 809:255 810:255 811:255 812:255 813:255 814:255 815:255 816:255 817:255 818:255 819:255 820:255 821:255 822:255 823:255 824:255 825:255 826:255 827:255 828:255 829:255 830:255 831:255 832:255 833:255 834:255 835:255 836:255 837:255 838:255 839:255 840:255 841:255 842:255 843:255 844:255 845:255 846:255 847:255 848:255 849:255 850:255 851:255 852:255 853:255 854:255 855:255 856:255 857:255 858:255 859:255 860:255 861:255 862:255 863:255 864:255 865:255 866:255 867:255 868:255 869:255 870:255 871:255 872:255 873:255 874:255 875:255 876:255 877:255 878:255 879:255 880:255 881:255 882:255 883:255 884:255 885:255 886:255 887:255 888:255 889:255 890:255 891:255 892:255 893:255 894:255 895:255 896:255 897:255 898:255 899:255 900:255 
